// (8, 1, 3, 3)
float conv_weights[72] = {
-0.11192025244235992f, -0.4745863080024719f, 0.05682967230677605f, 0.5396634936332703f, 0.4097725749015808f, 0.4260862171649933f, -0.5265617370605469f, 0.3074890971183777f, 
-0.26532939076423645f, 0.8392466306686401f, 0.08191145211458206f, -0.9929786920547485f, 0.14594946801662445f, 0.13186699151992798f, -0.798391580581665f, 0.29536914825439453f, 
0.948932945728302f, 0.7279788851737976f, 0.36157846450805664f, -0.7068883180618286f, 0.4989069104194641f, 0.45738381147384644f, -0.16778601706027985f, 0.41785454750061035f, 
0.23437145352363586f, -0.8410165905952454f, 0.49321794509887695f, -0.638456404209137f, -1.2906490564346313f, -1.1824204921722412f, 1.0252735614776611f, 0.8235995769500732f, 
-0.17510487139225006f, 0.27417483925819397f, 0.4024538993835449f, 0.49832722544670105f, -1.1833807229995728f, -0.2812875509262085f, 0.4835232198238373f, 0.1449669748544693f, 
0.932407796382904f, 0.6139640808105469f, 0.6257073283195496f, -0.17082355916500092f, -0.8160739541053772f, -0.2987368702888489f, -0.4690091609954834f, 0.3561251759529114f, 
-1.196718692779541f, 0.5691993236541748f, 0.7647666335105896f, 0.18900789320468903f, 0.4294317066669464f, -0.5548268556594849f, 0.08210588246583939f, 0.08806103467941284f, 
-0.5087058544158936f, 0.8693053126335144f, 0.5142475962638855f, -1.2518728971481323f, 0.9246081709861755f, 0.01912674307823181f, -1.1105475425720215f, 0.801459789276123f, 
0.6365167498588562f, 0.8501400351524353f, -0.12190346419811249f, 0.34955552220344543f, -0.05868006497621536f, -1.4854012727737427f, -1.4165685176849365f, -1.6440184116363525f, 
};
