// (10, 5408)
float fc_weights[54080] = {
-0.016657771542668343f, -0.03010627068579197f, 0.0581878237426281f, -0.025913052260875702f, -0.01958514377474785f, -0.03739209100604057f, 0.036451827734708786f, -0.1398809254169464f, 
-0.31233784556388855f, -0.18030139803886414f, 0.203853577375412f, -0.02305067889392376f, 0.22343748807907104f, -0.20355507731437683f, 0.03304055705666542f, 0.09652924537658691f, 
0.06563675403594971f, 0.04050236567854881f, -0.08811955153942108f, -0.11292605102062225f, -0.09163258969783783f, -0.026486139744520187f, -0.016706181690096855f, -0.019145183265209198f, 
-0.02065044641494751f, -0.030603215098381042f, -0.03196842968463898f, 0.021668657660484314f, 0.18539342284202576f, -0.11174522340297699f, -0.03602759167551994f, -0.03541043400764465f, 
-0.03349932283163071f, -0.14765016734600067f, -0.3553606867790222f, -0.36943233013153076f, -0.36536726355552673f, -0.5656060576438904f, -0.6577370762825012f, -0.48160701990127563f, 
-0.677239179611206f, -0.33876222372055054f, -0.3355122208595276f, -0.39026331901550293f, -0.1975882202386856f, -0.19762147963047028f, -0.06117722764611244f, -0.07756376266479492f, 
-0.07997706532478333f, -0.02037474513053894f, -0.036507438868284225f, -0.01633702777326107f, -0.017103983089327812f, 0.20817260444164276f, -0.021726224571466446f, 0.1842128336429596f, 
-0.0428975485265255f, -0.28585734963417053f, -0.37967270612716675f, -0.013333439826965332f, 0.1377580761909485f, -0.07760186493396759f, -0.020159831270575523f, 0.010126551613211632f, 
0.06361179798841476f, -0.03543201461434364f, -0.07392172515392303f, -0.0028552815783768892f, -0.04841877520084381f, -0.13890531659126282f, -0.1748943030834198f, -0.09465990215539932f, 
-0.28062158823013306f, 0.09239941090345383f, -0.01659056730568409f, -0.08254271000623703f, 0.10637705773115158f, 0.015429328195750713f, -0.022723259404301643f, -0.013712826184928417f, 
0.058534231036901474f, -0.2246617078781128f, -0.3157939314842224f, -0.10917957127094269f, -0.07085444778203964f, 0.19695548713207245f, 0.11643245071172714f, -0.04371625557541847f, 
0.10388616472482681f, 0.0548570454120636f, -0.06043250858783722f, -0.1025799885392189f, -0.015877053141593933f, -0.012173281982541084f, 0.052151672542095184f, -0.027347112074494362f, 
0.13401499390602112f, -0.1361420452594757f, -0.0007137169013731182f, 0.11986115574836731f, -0.1805969774723053f, -0.13395489752292633f, -0.15875694155693054f, -0.3618719279766083f, 
-0.04174588993191719f, 0.005530467722564936f, -0.14393392205238342f, -0.27153921127319336f, 0.01929863542318344f, 0.08839640021324158f, -0.09224473685026169f, 0.03270835801959038f, 
0.00010127608402399346f, 0.021908607333898544f, -0.12315463274717331f, -0.18710167706012726f, -0.28200486302375793f, -0.14770497381687164f, -0.04614692181348801f, -0.08193114399909973f, 
-0.008352246135473251f, 0.09150892496109009f, 0.16449038684368134f, 0.0810282975435257f, 0.27133336663246155f, 0.09218522906303406f, 0.14112688601016998f, 0.07510213553905487f, 
-0.41540074348449707f, -0.1902528554201126f, -0.026179596781730652f, -0.027758518233895302f, -0.21341662108898163f, -0.14996571838855743f, 0.33024802803993225f, 0.1689995378255844f, 
0.015309212729334831f, -0.08538035303354263f, 0.09885375201702118f, -0.043673984706401825f, 0.18661320209503174f, 0.05203244462609291f, 0.05645116791129112f, 0.06516778469085693f, 
-0.053522296249866486f, -0.05354156717658043f, 0.03599613904953003f, 0.06418406963348389f, -0.16284021735191345f, -0.13444223999977112f, 0.029546072706580162f, 0.004754993133246899f, 
-0.06997138261795044f, -0.28187295794487f, -0.5800483226776123f, -0.5343543887138367f, -0.03289352357387543f, -0.04963907599449158f, -0.014251683838665485f, -0.2962484657764435f, 
-0.12171806395053864f, -0.034275345504283905f, -0.04335692897439003f, 0.12330992519855499f, 0.1307135820388794f, 0.19506429135799408f, 0.03700626641511917f, 0.09067744761705399f, 
-0.02403911203145981f, 0.14385929703712463f, -0.15327350795269012f, -0.07933953404426575f, -0.08705136924982071f, 0.20825828611850739f, 0.16426196694374084f, 0.3160339891910553f, 
0.15623131394386292f, 0.26009324193000793f, 0.35459113121032715f, 0.3339040279388428f, 0.08244135230779648f, -0.20967383682727814f, 0.08251049369573593f, 0.06785173714160919f, 
-0.33522528409957886f, -0.34152087569236755f, -0.07258575409650803f, 0.23480316996574402f, 0.04042065143585205f, 0.09621099382638931f, -0.049479641020298004f, 0.12691572308540344f, 
-0.06784576177597046f, -0.18549874424934387f, 0.05165097862482071f, -0.09222615510225296f, 0.09203187376260757f, -0.040433336049318314f, 0.12644536793231964f, -0.03284633532166481f, 
0.29558178782463074f, 0.04364214837551117f, -0.052219633013010025f, 0.03639083728194237f, 0.21121661365032196f, -0.02136015146970749f, -0.3163255751132965f, -0.09004397690296173f, 
0.018153751268982887f, 0.082917220890522f, -0.3365892469882965f, 0.03027973510324955f, 0.1420198380947113f, 0.11870745569467545f, 0.02759823203086853f, 0.04804261773824692f, 
0.012251775711774826f, 0.05164811387658119f, 0.1597069948911667f, -0.09249297529459f, -0.08117857575416565f, -0.24024322628974915f, -0.1730089783668518f, -0.1915496587753296f, 
-0.17561733722686768f, -0.16551198065280914f, -0.17197415232658386f, 0.05219316855072975f, -0.1196776032447815f, -0.07494744658470154f, 0.17765840888023376f, 0.1434105783700943f, 
0.3146510720252991f, -0.28236669301986694f, 0.2758457660675049f, 0.23954108357429504f, 0.11634152382612228f, 0.0062744650058448315f, 0.09086564183235168f, 0.01830771192908287f, 
0.024754727259278297f, 0.021334944292902946f, 0.15623237192630768f, -0.0442851185798645f, 0.09341120719909668f, -0.03268922492861748f, -0.12104107439517975f, -0.04687502235174179f, 
-0.04502493888139725f, 0.016776781529188156f, 0.10022176057100296f, -0.09023872017860413f, -0.26891759037971497f, 0.06759490817785263f, 0.16005609929561615f, 0.2333865910768509f, 
0.07287227362394333f, 0.34483763575553894f, -0.19044068455696106f, -0.1368173360824585f, 0.06894566118717194f, -0.1042451411485672f, -0.1660587638616562f, -0.1559317409992218f, 
-0.02755053900182247f, 0.16183273494243622f, 0.10942566394805908f, -0.17443078756332397f, -0.08963160216808319f, -0.04179606959223747f, -0.2305496484041214f, -0.09170641750097275f, 
-0.325577050447464f, -0.2723807692527771f, -0.3554195761680603f, -0.19845303893089294f, -0.2727296054363251f, -0.25518614053726196f, -0.05687739700078964f, -0.11710159480571747f, 
0.18529103696346283f, 0.10686500370502472f, 0.09594891220331192f, -0.008468957617878914f, -0.2105582058429718f, -0.1624888777732849f, -0.003951095975935459f, -0.20185396075248718f, 
-0.39036107063293457f, -8.410584996454418e-05f, -0.030230803415179253f, 0.0992538332939148f, 0.027693139389157295f, -0.08632393181324005f, 0.018835000693798065f, 0.12290752679109573f, 
0.10003278404474258f, -0.07710285484790802f, -0.13369449973106384f, -0.43047675490379333f, -0.41216376423835754f, -0.22705838084220886f, -0.0821065902709961f, 0.08516895025968552f, 
-0.10832799971103668f, -0.086439348757267f, -0.08383601158857346f, -0.09349875897169113f, 0.08189896494150162f, 0.05750828981399536f, 0.2776353359222412f, -0.34974220395088196f, 
0.015287634916603565f, -0.15939287841320038f, -0.06020549684762955f, 0.03720809146761894f, 0.11728817224502563f, 0.010448096320033073f, 0.1447829157114029f, 0.08800851553678513f, 
0.07489273697137833f, 0.08486337959766388f, -0.07186593860387802f, -0.25653520226478577f, -0.4842293858528137f, -0.5805649161338806f, -0.3957871198654175f, -0.5378787517547607f, 
-0.20484307408332825f, 0.053669266402721405f, -0.14789283275604248f, -0.1172708049416542f, -0.12554968893527985f, 0.10025445371866226f, -0.2210431694984436f, 0.061107419431209564f, 
-0.11812197417020798f, -0.35063084959983826f, -0.03898463770747185f, -0.24067319929599762f, -0.1702423244714737f, -0.15747828781604767f, 0.2661675214767456f, 0.06465833634138107f, 
0.2201583981513977f, 0.2202078253030777f, 0.025311965495347977f, 0.19769392907619476f, -0.044126711785793304f, 0.014314950443804264f, -0.37459635734558105f, -0.3530385196208954f, 
-0.6149887442588806f, -0.2969124913215637f, -0.33122581243515015f, -0.12043575942516327f, -0.07362644374370575f, 0.11311211436986923f, -0.03324062004685402f, -0.06602171808481216f, 
0.019352203235030174f, 0.21571971476078033f, 0.14650565385818481f, -0.28355011343955994f, -0.04550204798579216f, -0.44804632663726807f, -0.4253947138786316f, -0.035370081663131714f, 
0.12473303079605103f, 0.07459331303834915f, 0.07000314444303513f, 0.3942340612411499f, 0.14556816220283508f, 0.09242044389247894f, 0.06205201521515846f, -0.11916742473840714f, 
-0.27589648962020874f, -0.2544841766357422f, -0.28682002425193787f, -0.25508594512939453f, -0.07872617244720459f, -0.24216435849666595f, -0.08149819076061249f, 0.02214203029870987f, 
-0.06947869062423706f, -0.15954455733299255f, 0.14086443185806274f, 0.1407661885023117f, -0.0350094698369503f, -0.0891200602054596f, -0.02632465399801731f, -0.444200724363327f, 
-0.012745373882353306f, 0.014756625518202782f, 0.08757023513317108f, 0.01665942557156086f, 0.07456599175930023f, 0.005775065161287785f, 0.15027488768100739f, -0.07398282736539841f, 
-0.14788323640823364f, -0.18578913807868958f, -0.366080641746521f, -0.07769512385129929f, -0.04889993369579315f, -0.09795422106981277f, 0.11075609177350998f, -0.2159457951784134f, 
0.021886151283979416f, -0.09330658614635468f, 0.01810554787516594f, -0.06061362475156784f, -0.0850779265165329f, -0.21667546033859253f, -0.6515654921531677f, -0.5661485195159912f, 
-0.06965777277946472f, -0.26580655574798584f, -0.15820282697677612f, 0.015708070248365402f, 0.000991803826764226f, 0.13376499712467194f, 0.05948368459939957f, -0.004044391214847565f, 
0.2867059111595154f, 0.2626659572124481f, 0.020357070490717888f, -0.10614264756441116f, -0.07864665240049362f, -0.03642968088388443f, -0.1068509966135025f, -0.1254243701696396f, 
-0.1917051076889038f, -0.03986063599586487f, -0.2378045618534088f, -0.09162987768650055f, -0.07932188361883163f, 0.13870874047279358f, 0.08676475286483765f, -0.11553221195936203f, 
-0.6203172206878662f, 0.19629834592342377f, -0.00370397069491446f, -0.08151789754629135f, -0.17389477789402008f, 0.14413896203041077f, -0.0645427256822586f, 0.03484923020005226f, 
-0.1377929151058197f, 0.10198552161455154f, 0.2008022964000702f, 0.2370416224002838f, 0.08704843372106552f, 0.03287371248006821f, -0.12510091066360474f, 0.019196810200810432f, 
0.1526402235031128f, 0.061323605477809906f, -0.04314709082245827f, -0.0733151063323021f, -0.1650022566318512f, -0.0986575335264206f, -0.10358855128288269f, 0.032217588275671005f, 
-0.1796245127916336f, -0.18569032847881317f, -0.3000656068325043f, -0.30904844403266907f, 0.08603828400373459f, -0.02710440754890442f, -0.03313141316175461f, 0.0810287669301033f, 
0.16720309853553772f, 0.20500771701335907f, -0.057416096329689026f, -0.14740169048309326f, 0.004775562323629856f, 0.036761097609996796f, 0.0629073977470398f, 0.08347469568252563f, 
0.13357093930244446f, 0.05982070788741112f, -0.023681627586483955f, -0.037003085017204285f, 0.04216156154870987f, -0.2014700472354889f, 0.04634453356266022f, 0.009326810017228127f, 
0.031928449869155884f, 0.04164457693696022f, -0.0933251827955246f, -0.24233171343803406f, 0.12067870050668716f, 0.010719702579081059f, 0.11108666658401489f, -0.3227749764919281f, 
0.13488540053367615f, 0.04507015645503998f, -0.04615751653909683f, -0.1162276566028595f, -0.04124908521771431f, -0.10406695306301117f, -0.10966542363166809f, 0.07211834192276001f, 
0.2063847780227661f, 0.14785781502723694f, -0.05352102220058441f, -0.058341134339571f, 0.059326719492673874f, 0.06078648939728737f, -0.03250051662325859f, 0.13753437995910645f, 
0.08313176035881042f, -0.1374872922897339f, -0.023665156215429306f, -0.1551164835691452f, -0.2660287022590637f, -0.46511325240135193f, -0.3480009436607361f, -0.24156710505485535f, 
-0.3981390595436096f, -0.2813055217266083f, -0.0831250324845314f, -0.27165305614471436f, -0.14499948918819427f, 0.15377531945705414f, 0.12497001886367798f, -0.01042025163769722f, 
-0.10738109052181244f, -0.1536659151315689f, 0.03644736856222153f, 0.11188748478889465f, 0.030724385753273964f, 0.07900913059711456f, 0.045043691992759705f, -0.010115568526089191f, 
-0.06700436770915985f, -0.35688307881355286f, -0.31814855337142944f, -0.07480170577764511f, 0.05128628388047218f, 0.18603108823299408f, -0.3145676553249359f, -0.3846857249736786f, 
0.10984998196363449f, 0.21827220916748047f, -0.044783324003219604f, 0.17986370623111725f, -0.41300132870674133f, -0.42981961369514465f, -0.23861926794052124f, -0.030483538284897804f, 
-0.1781936138868332f, -0.17506547272205353f, -0.11288344860076904f, -0.02047407627105713f, -0.017299732193350792f, 0.10530512779951096f, 0.14299803972244263f, 0.20250722765922546f, 
0.19427992403507233f, 0.1109846979379654f, 0.2699122428894043f, -0.005507322959601879f, 0.054385509341955185f, -0.01099498849362135f, 0.2832758128643036f, 0.11950889229774475f, 
-0.30168041586875916f, -0.37137845158576965f, -0.2374640256166458f, -0.05955725163221359f, -0.03129950165748596f, -0.1618335098028183f, 0.22837954759597778f, -0.07838478684425354f, 
-0.04722898453474045f, -0.2742900848388672f, -0.07732584327459335f, -0.09391728043556213f, -0.0498214028775692f, -0.2710970342159271f, -0.16379112005233765f, -0.07855739444494247f, 
-0.02059045620262623f, 0.14825919270515442f, 0.1774621456861496f, -0.1041538342833519f, 0.05211448669433594f, 0.06893441081047058f, -0.20052452385425568f, 0.055869150906801224f, 
0.028340959921479225f, -0.17492367327213287f, -0.34696412086486816f, -0.2030564695596695f, -0.38308611512184143f, -0.07599509507417679f, -0.07924561202526093f, -0.16047297418117523f, 
0.16074836254119873f, 0.24453596770763397f, 0.1661497950553894f, 0.07060517370700836f, -0.22613468766212463f, -0.2915763258934021f, -0.30694499611854553f, -0.4823544919490814f, 
-0.4435383081436157f, -0.3381548225879669f, -0.07270331680774689f, 0.08856268227100372f, 0.22732733190059662f, 0.326334148645401f, -0.013864109292626381f, -0.1471121460199356f, 
0.10969286412000656f, -0.11780638992786407f, -0.4319648742675781f, -0.412823349237442f, -0.40494421124458313f, -0.3589839041233063f, -0.14129754900932312f, -0.026062052696943283f, 
-0.033200666308403015f, -0.011906960047781467f, -0.2303064912557602f, -0.49338528513908386f, -0.7095441818237305f, -0.5066258907318115f, -0.4485608637332916f, -0.23402702808380127f, 
-0.06010989844799042f, -0.08645752817392349f, -0.08600877970457077f, -0.4244554936885834f, -0.272836834192276f, -0.3080331087112427f, -0.2635771632194519f, -0.2846427857875824f, 
-0.5358011722564697f, -0.6140043139457703f, -0.4669148325920105f, -0.31606799364089966f, -0.3176681101322174f, -0.24572159349918365f, -0.11705594509840012f, -0.2277751863002777f, 
-0.12353496253490448f, -0.017425185069441795f, -0.020522432401776314f, -0.027830587700009346f, -0.04079652950167656f, -0.29477083683013916f, -0.46411898732185364f, -0.6052289009094238f, 
-0.6108007431030273f, -0.7408046126365662f, -0.6530826687812805f, -0.37071460485458374f, -0.28371357917785645f, -0.31324419379234314f, -0.36723920702934265f, -0.5975545644760132f, 
-0.5755695700645447f, -0.6180267333984375f, -0.6365388035774231f, -0.39045995473861694f, -0.3270495533943176f, -0.1798812747001648f, -0.2701018154621124f, -0.26935791969299316f, 
-0.06430085748434067f, -0.042226143181324005f, -0.011712188832461834f, -0.013631535694003105f, -0.009219137020409107f, 0.01020965725183487f, 0.0029809437692165375f, -0.0002648484078235924f, 
-0.01808866672217846f, -0.05777280032634735f, -0.08325865119695663f, -0.17055325210094452f, -0.3573084771633148f, -0.5728482007980347f, -0.5697035789489746f, -0.47444620728492737f, 
-0.7981764674186707f, -0.7968509197235107f, -0.7794956564903259f, -0.6900567412376404f, -0.581921398639679f, -0.4933549463748932f, -0.4297437071800232f, -0.2192162275314331f, 
-0.16149288415908813f, -0.0926947072148323f, -0.1437055468559265f, -0.07685510814189911f, -0.20947971940040588f, 0.0025398957077413797f, 0.005091208964586258f, 0.011283052153885365f, 
-0.030911896377801895f, -0.02598467469215393f, -0.22182312607765198f, -0.31579896807670593f, -0.5871888995170593f, 0.03116772696375847f, -0.06319525092840195f, 0.057069625705480576f, 
-0.04225914552807808f, 0.22131192684173584f, 0.15819880366325378f, -0.04443644732236862f, -0.2476305067539215f, -0.09853614866733551f, -0.005387548357248306f, -0.17422884702682495f, 
-0.21261227130889893f, -0.22456134855747223f, -0.17123325169086456f, 0.01849476993083954f, 0.031850893050432205f, 0.09410475939512253f, 0.012239193543791771f, -0.017798801884055138f, 
-0.001962190493941307f, 0.012929060496389866f, -0.021823100745677948f, -0.1476232409477234f, -0.24986419081687927f, -0.31567418575286865f, 0.0660339966416359f, 0.1667567938566208f, 
0.40713849663734436f, 0.2759983539581299f, -0.03413371741771698f, 0.06908843666315079f, 0.18194402754306793f, 0.03269241005182266f, -0.2838689982891083f, -0.17618998885154724f, 
0.020225342363119125f, 0.05113121494650841f, -0.04845774173736572f, -0.049408379942178726f, -0.0697811171412468f, 0.1651810109615326f, -0.3757980763912201f, -0.21572281420230865f, 
-0.07877137511968613f, -0.10024834424257278f, 0.005166281014680862f, -0.02643703483045101f, -0.08236829191446304f, -0.20596843957901f, -0.4096897840499878f, 0.29599079489707947f, 
0.280150443315506f, -0.3026580512523651f, -0.1152416542172432f, 0.019326230511069298f, -0.0892036110162735f, -0.4068354666233063f, -0.2532786428928375f, 0.11533014476299286f, 
-0.024671947583556175f, -0.14517666399478912f, -0.14406350255012512f, 0.22662945091724396f, 0.15615415573120117f, 0.19959256052970886f, 0.09271365404129028f, 0.27788904309272766f, 
0.16910384595394135f, -0.05506297945976257f, 0.14418187737464905f, -0.2269185334444046f, -0.01222031656652689f, -0.000749684520997107f, -0.014933789148926735f, -0.09291163831949234f, 
0.13568568229675293f, -0.10570774972438812f, -0.33929386734962463f, -0.2169792503118515f, -0.08058784157037735f, 0.1834452599287033f, -0.07309343665838242f, -0.05349195376038551f, 
0.10111157596111298f, 0.07512911409139633f, 0.016318578273057938f, -0.07933018356561661f, -0.012723971158266068f, 0.01166391372680664f, 0.08256176859140396f, -0.12072546035051346f, 
0.06901136040687561f, 0.1566517949104309f, 0.3084624111652374f, -0.2134036272764206f, -0.2883363664150238f, -0.4935341477394104f, -0.0385097861289978f, -0.08119510114192963f, 
-0.09634783864021301f, -0.11527656763792038f, -0.5073721408843994f, -0.45873719453811646f, -0.15247516334056854f, -0.055200036615133286f, -0.09672349691390991f, 0.14639993011951447f, 
0.10006047040224075f, -0.16765162348747253f, 0.1251893788576126f, -0.26214638352394104f, -0.03627845272421837f, -0.04851946979761124f, 0.09576605260372162f, 0.2186456024646759f, 
0.28020820021629333f, 0.1747346967458725f, 0.2666345536708832f, 0.3521890938282013f, 0.30410948395729065f, 0.5117712616920471f, -0.1626584231853485f, -0.5172313451766968f, 
-0.023389765992760658f, -0.020927932113409042f, -0.02982516773045063f, -0.31312716007232666f, -0.5870197415351868f, -0.13138699531555176f, 0.061065711081027985f, 0.10959838330745697f, 
0.21298931539058685f, -0.284227192401886f, -0.35261982679367065f, -0.39722704887390137f, -0.042937617748975754f, -0.040664613246917725f, -0.008603358641266823f, 0.1783250868320465f, 
0.13709262013435364f, 0.14625757932662964f, 0.23750320076942444f, 0.1476585865020752f, 0.15361253917217255f, 0.35061097145080566f, -0.023982586339116096f, 0.33937209844589233f, 
-0.034570228308439255f, -0.5105805993080139f, -0.05332498624920845f, 0.0019995649345219135f, -0.11810725927352905f, -0.2441743165254593f, -0.39995884895324707f, 0.14215700328350067f, 
0.07689646631479263f, -0.18886347115039825f, -0.045131586492061615f, 0.23829513788223267f, -0.20310355722904205f, 0.041970375925302505f, 0.07958149909973145f, -0.19609668850898743f, 
-0.14876334369182587f, 0.036263059824705124f, -0.042375341057777405f, 0.19215701520442963f, 0.2758089303970337f, 0.21631404757499695f, 0.10846853256225586f, 0.0614318922162056f, 
0.12712419033050537f, 0.2830405533313751f, 0.2563762962818146f, -0.47792884707450867f, -0.018829982727766037f, 0.22284646332263947f, 0.2309044450521469f, -0.17077670991420746f, 
-0.4646582305431366f, -0.4522515833377838f, 0.18597470223903656f, 0.09882401674985886f, 0.019193701446056366f, 0.1454906463623047f, -0.047419335693120956f, -0.06110310181975365f, 
0.0418064147233963f, -0.08616166561841965f, 0.12538328766822815f, 0.3426721394062042f, 0.3046433627605438f, 0.26289597153663635f, 0.23307916522026062f, 0.21351662278175354f, 
0.3573617935180664f, 0.13366959989070892f, 0.18499544262886047f, 0.015088927932083607f, 0.17430660128593445f, -0.18910491466522217f, -0.03005678951740265f, 0.003934209235012531f, 
-0.008095440454781055f, -0.5647634267807007f, -0.31632721424102783f, -0.04308520630002022f, 0.4568720757961273f, -0.058978937566280365f, -0.3455752432346344f, -0.29217004776000977f, 
-0.07576543837785721f, -0.2636103928089142f, 0.08343423902988434f, -0.28973880410194397f, -0.17801344394683838f, 0.026344673708081245f, 0.05931827798485756f, 0.08606161177158356f, 
0.308558851480484f, 0.2905857264995575f, 0.24369822442531586f, 0.10944508016109467f, 0.07925023138523102f, 0.0906718373298645f, -0.0010633243946358562f, 0.1442808359861374f, 
-0.026591166853904724f, -0.06121708080172539f, 0.04096914827823639f, -0.6239343881607056f, -0.49024873971939087f, -0.18220588564872742f, -0.11322111636400223f, -0.13390453159809113f, 
-0.2716044783592224f, -0.32995176315307617f, 0.03307919204235077f, 0.12883545458316803f, -0.04335345700383186f, -0.12427157908678055f, -0.10053795576095581f, -0.12800133228302002f, 
0.1053977832198143f, 0.05096420645713806f, 0.30605143308639526f, 0.21498984098434448f, 0.11222587525844574f, 0.1552378237247467f, 0.24254435300827026f, 0.13591521978378296f, 
0.1742917001247406f, 0.11080577969551086f, -0.027190841734409332f, -0.005363140255212784f, -0.12328383326530457f, -0.5031648874282837f, -0.22309906780719757f, -0.30693936347961426f, 
-0.03911593183875084f, 0.05750088393688202f, -0.06604190170764923f, -0.16294722259044647f, 0.16127079725265503f, -0.13258585333824158f, -0.32940593361854553f, -0.15840594470500946f, 
-0.3287949860095978f, -0.3919021189212799f, 0.03571772202849388f, 0.0836033821105957f, -0.11032198369503021f, 0.02631431631743908f, 0.2170265018939972f, 0.18364112079143524f, 
0.12733255326747894f, 0.10025636106729507f, 0.1873389184474945f, 0.1418890655040741f, -0.007341448217630386f, -0.09530965238809586f, 0.151131272315979f, -0.6494661569595337f, 
-0.4784087836742401f, -0.30183547735214233f, -0.007382787298411131f, -0.03517948463559151f, -0.16502828896045685f, -0.11072297394275665f, 0.01969214342534542f, -0.028877604752779007f, 
-0.2542802691459656f, -0.31443679332733154f, -0.2835323214530945f, -0.4008796513080597f, -0.21027319133281708f, -0.12660400569438934f, -0.04697504639625549f, -0.08297912776470184f, 
-0.04142129048705101f, 0.13909128308296204f, 0.07032668590545654f, 0.23195360600948334f, 0.23415666818618774f, 0.2756316065788269f, -0.045002780854701996f, -0.04175956919789314f, 
-0.38776618242263794f, -0.4601687788963318f, -0.321481853723526f, 0.07704838365316391f, -0.1114179790019989f, -0.15986643731594086f, -0.01799030229449272f, 0.0876980572938919f, 
0.08013332635164261f, 0.029227305203676224f, 0.17239150404930115f, -0.28789854049682617f, -0.17938993871212006f, -0.2934851050376892f, -0.4324488043785095f, -0.27702754735946655f, 
0.10492817312479019f, -0.24465766549110413f, -0.19452136754989624f, 0.050397537648677826f, 0.15440590679645538f, 0.04852123185992241f, 0.06432230770587921f, -0.08597655594348907f, 
0.004284348338842392f, -0.07286812365055084f, -0.36456626653671265f, -0.24169370532035828f, -0.284913569688797f, -0.011444189585745335f, 0.11477833986282349f, -0.15999409556388855f, 
-0.20380930602550507f, -0.043297722935676575f, 0.04640485718846321f, -0.0394730307161808f, 0.18586547672748566f, -0.19069741666316986f, -0.19013746082782745f, -0.28393012285232544f, 
-0.4466567933559418f, -0.29929569363594055f, -0.03194746747612953f, 0.056299228221178055f, -0.14334161579608917f, 0.0747196301817894f, -0.013525688089430332f, -0.01873093470931053f, 
-0.026905184611678123f, 0.0942142903804779f, -0.021614577621221542f, -0.07652337104082108f, -0.30043673515319824f, -0.48127782344818115f, -0.2728443145751953f, 0.07521377503871918f, 
-0.014876686036586761f, 0.020183682441711426f, 0.10237456113100052f, 0.10950244218111038f, 0.24329356849193573f, -0.08203691244125366f, 0.04868144914507866f, -0.26230090856552124f, 
-0.6837763786315918f, -0.5337861180305481f, -0.3783692717552185f, -0.44743627309799194f, -0.18225546181201935f, -0.12635979056358337f, -0.15957869589328766f, 0.07635172456502914f, 
-0.06652843207120895f, 0.1905076801776886f, 0.13879269361495972f, 0.0633392408490181f, -0.011898166500031948f, -0.0941413938999176f, -0.40605297684669495f, -0.5763780474662781f, 
-0.4357512891292572f, -0.014853858388960361f, 0.10823249816894531f, 0.0848701149225235f, 0.2133149802684784f, -0.03310387209057808f, 0.0821828544139862f, 0.12884850800037384f, 
-0.09967993199825287f, -0.06272612512111664f, -0.2548229396343231f, -0.5186823010444641f, -0.27093350887298584f, -0.45310455560684204f, -0.339185506105423f, -0.10593903064727783f, 
-0.13676738739013672f, 0.008119283244013786f, -0.08614969253540039f, 0.15499000251293182f, -0.11536464095115662f, 0.004428556654602289f, -0.010767892934381962f, -0.024951396510004997f, 
-0.21495339274406433f, 0.1837027370929718f, 0.10868226736783981f, 0.14639095962047577f, 0.05100325122475624f, 0.08537644892930984f, 0.0760112926363945f, -0.08519580960273743f, 
-0.09167972207069397f, 0.13172926008701324f, 0.12256484478712082f, -0.22216948866844177f, -0.2551068067550659f, -0.2574346363544464f, -0.08908539265394211f, -0.3199150860309601f, 
-0.2574445903301239f, -0.13418824970722198f, -0.22766809165477753f, -0.06994174420833588f, -0.12875492870807648f, 0.18347667157649994f, 0.015496975742280483f, -0.4531138837337494f, 
-0.009035804308950901f, -0.02089473232626915f, -0.22884362936019897f, 0.1870483011007309f, 0.3757629096508026f, 0.01041417382657528f, 0.012763521634042263f, 0.18538035452365875f, 
0.21532128751277924f, 0.09844734519720078f, 0.026398804038763046f, -0.010283496230840683f, 0.09761682897806168f, -0.0033355997875332832f, -0.08792106807231903f, -0.2940671443939209f, 
-0.18237453699111938f, -0.15494383871555328f, -0.21381326019763947f, -0.2583761513233185f, -0.2923929691314697f, -0.24978454411029816f, -0.036070339381694794f, 0.03178507462143898f, 
-0.036691635847091675f, -0.4062868356704712f, -0.04854390397667885f, -0.026942631229758263f, 0.17257241904735565f, -0.09900327771902084f, 0.5404483079910278f, 0.1751122623682022f, 
0.16656512022018433f, 0.1083233430981636f, 0.15046975016593933f, 0.16365842521190643f, 0.13086146116256714f, 0.05638723075389862f, 0.1681796908378601f, -0.04156282916665077f, 
-0.23937098681926727f, -0.14676469564437866f, -0.3495447337627411f, -0.3769763112068176f, -0.2348269820213318f, -0.12028761208057404f, -0.2737628221511841f, 0.05945611745119095f, 
-0.02904912829399109f, -0.18795809149742126f, -0.21584582328796387f, -0.4216362535953522f, -0.0005544722080230713f, 0.009637337177991867f, -0.028888339176774025f, -0.15962080657482147f, 
0.19588683545589447f, 0.4800264537334442f, -0.023084068670868874f, 0.1598704308271408f, 0.10415086895227432f, 0.23604315519332886f, 0.2167423963546753f, 0.13468067348003387f, 
0.2006329596042633f, 0.01802625134587288f, 0.04785856232047081f, 0.08584895730018616f, -0.24140217900276184f, -0.29538673162460327f, -0.11477861553430557f, -0.07924660295248032f, 
-0.29180556535720825f, -0.038719527423381805f, 0.06160258874297142f, -0.3082297444343567f, -0.4516737461090088f, -0.09073249995708466f, -0.0010330937802791595f, -0.033915307372808456f, 
-0.06218288093805313f, -0.14090828597545624f, 0.22638224065303802f, -0.07677986472845078f, 0.44958025217056274f, 0.3968857526779175f, 0.20687492191791534f, 0.10022144019603729f, 
0.22634196281433105f, -0.09290258586406708f, 0.07062607258558273f, -0.1957249641418457f, -0.07337771356105804f, 0.1502363383769989f, -0.40237632393836975f, -0.4217833876609802f, 
-0.6490536332130432f, -0.44605588912963867f, -0.4668952524662018f, -0.20332033932209015f, 0.3772534430027008f, -0.38040363788604736f, -0.3701072037220001f, -0.04611935093998909f, 
-0.006922974716871977f, -0.08207579702138901f, -0.2612278461456299f, -0.17314830422401428f, 0.21607352793216705f, 0.10206608474254608f, 0.2770809829235077f, 0.13202868402004242f, 
0.1748475879430771f, -0.049728721380233765f, -0.20174740254878998f, 0.32738929986953735f, -0.10154783725738525f, -0.5560537576675415f, -0.14290811121463776f, 0.042579036206007004f, 
-0.29567089676856995f, 0.10500715672969818f, -0.5074656009674072f, -0.5801671743392944f, -0.45768988132476807f, -0.15121549367904663f, 0.28174343705177307f, -0.1144489124417305f, 
-0.3617965877056122f, -0.038639217615127563f, -0.004811633378267288f, -0.009839227423071861f, -0.02364230901002884f, -0.059517793357372284f, -0.08567223697900772f, -0.09828609973192215f, 
0.15372097492218018f, 0.32049861550331116f, 0.018475154414772987f, 0.3411853611469269f, -0.1989382952451706f, -0.11551458388566971f, -0.2309081256389618f, -0.40127894282341003f, 
-0.49560633301734924f, -0.7689014673233032f, -0.43083247542381287f, -0.16663412749767303f, -0.43233075737953186f, -0.5510441064834595f, -0.4957495331764221f, -0.3418439030647278f, 
0.07038646191358566f, -0.31020471453666687f, -0.34757813811302185f, -0.021297581493854523f, 0.0030088480561971664f, 0.00078568235039711f, -0.01497915294021368f, -0.077848419547081f, 
-0.012682291679084301f, 0.17245477437973022f, -0.18282578885555267f, 0.1656389683485031f, -0.5690250396728516f, 0.15601076185703278f, -0.6058346033096313f, -0.213853657245636f, 
-0.5510205626487732f, -0.615003228187561f, -0.27710533142089844f, -0.43910330533981323f, -0.4251743257045746f, 0.042631663382053375f, -0.4171384572982788f, -0.47888895869255066f, 
-0.3935248851776123f, -0.44729164242744446f, -0.3631610572338104f, -0.29194989800453186f, -0.0415257029235363f, 0.0021300551015883684f, 0.0017494913190603256f, -0.004282403737306595f, 
-0.006905188784003258f, -0.04291847348213196f, -0.062381044030189514f, -0.06208279728889465f, -0.3355196714401245f, -0.22760450839996338f, -0.4105219841003418f, -0.4950280785560608f, 
-0.09588119387626648f, -0.44523921608924866f, -0.5703696012496948f, -0.45595383644104004f, -0.44584164023399353f, -0.3010857105255127f, -0.258777916431427f, -0.38364747166633606f, 
-0.35560500621795654f, -0.06463944911956787f, -0.2581899166107178f, -0.3297869861125946f, -0.3493439853191376f, -0.0987154096364975f, -0.049262531101703644f, -0.0013998596696183085f, 
0.0009151570266112685f, -0.008147895336151123f, 0.005636013578623533f, -0.011016967706382275f, 0.009517389349639416f, 0.012814336456358433f, -0.010642409324645996f, -0.07801302522420883f, 
-0.08874442428350449f, 0.09616034477949142f, -0.16191615164279938f, -0.16594155132770538f, -0.2492576688528061f, 0.0060745542868971825f, 0.028946097940206528f, -0.015345788560807705f, 
0.032313186675310135f, 0.013533324934542179f, -0.004471654538065195f, 0.007923360913991928f, -0.01451171189546585f, 0.010149186477065086f, 0.0012298745568841696f, -0.0007496254402212799f, 
-0.011657806113362312f, 0.007754275109618902f, 0.0015268523711711168f, 0.0411689355969429f, -0.0070548332296311855f, 0.1426931619644165f, -0.046911533921957016f, -0.2566554546356201f, 
0.17290224134922028f, -0.2537502348423004f, -0.1211995929479599f, -0.2645731270313263f, -0.3669874668121338f, -0.36212611198425293f, 0.1379309743642807f, -0.037409305572509766f, 
-0.03741908445954323f, -0.17808546125888824f, -0.1344977617263794f, 0.09146516025066376f, 0.09280966222286224f, -0.006452131550759077f, -0.07388002425432205f, 0.02678634785115719f, 
-0.05132013186812401f, 0.0036089783534407616f, 0.0036015519872307777f, 0.010930031538009644f, -0.004728606436401606f, 0.004882531706243753f, 0.0029511740431189537f, -0.061385903507471085f, 
-0.131196066737175f, -0.24545344710350037f, 0.13990052044391632f, 0.14750897884368896f, -0.19861769676208496f, -0.059857890009880066f, -0.2214602380990982f, -0.118401899933815f, 
-0.0797819048166275f, 0.32509955763816833f, 0.3124595582485199f, -0.20275355875492096f, 0.0589875727891922f, 0.12012597918510437f, -0.07310089468955994f, -0.3549530506134033f, 
0.37570229172706604f, -0.2685948610305786f, -0.04426448419690132f, 0.048324473202228546f, 0.03143324702978134f, 0.001030755927786231f, 0.008010764606297016f, 0.07895096391439438f, 
-0.023799212649464607f, -0.09323753416538239f, 0.10099527984857559f, -0.4704689681529999f, 0.18010936677455902f, 0.1767890453338623f, -0.10211815685033798f, 0.12453465163707733f, 
-0.11614465713500977f, -0.17657767236232758f, -0.07342878729104996f, -0.05294385552406311f, 0.06980986893177032f, -0.12362493574619293f, -0.011687608435750008f, 0.22489389777183533f, 
-0.1160329282283783f, 0.042748402804136276f, 0.0839933454990387f, -0.3878805637359619f, 0.32152026891708374f, 0.026457514613866806f, -0.21137341856956482f, 0.06576420366764069f, 
0.00353955733589828f, 0.0801517516374588f, -0.05095989257097244f, -0.014689202420413494f, 0.14466428756713867f, -0.35341888666152954f, 0.08817009627819061f, 0.10296610742807388f, 
0.03251248970627785f, -0.12132948637008667f, -0.09389545768499374f, -0.05508685111999512f, -0.22738401591777802f, -0.0335271954536438f, 0.017790326848626137f, 0.037140145897865295f, 
-0.17613062262535095f, 0.1427595615386963f, -0.12611722946166992f, 0.2514229714870453f, 0.032147232443094254f, -0.17898871004581451f, 0.36651483178138733f, 0.19029299914836884f, 
-0.07420796155929565f, 0.0836203470826149f, -0.004654352553188801f, 0.040637169033288956f, -0.051396410912275314f, -0.06301064044237137f, 0.13806696236133575f, -0.1882617026567459f, 
0.17302943766117096f, 0.18666672706604004f, -0.09487170726060867f, 0.06588998436927795f, -0.10805287957191467f, -0.047733843326568604f, 0.028073057532310486f, 0.0605255551636219f, 
-0.1671970635652542f, 0.15933923423290253f, -0.05725271254777908f, 0.029470542445778847f, -0.0737294927239418f, 0.15086409449577332f, -0.3007340729236603f, -0.2749207317829132f, 
0.3475744426250458f, -0.23463618755340576f, 0.016685403883457184f, -0.22031036019325256f, 0.001497999532148242f, 0.011949928477406502f, -0.22913695871829987f, 0.03712081164121628f, 
0.15361641347408295f, -0.3192516267299652f, 0.19259028136730194f, 0.2194644808769226f, 0.24005238711833954f, -0.08318476378917694f, 0.1782221794128418f, -0.02087709680199623f, 
0.130262553691864f, -0.10218740999698639f, 0.044038087129592896f, 0.047463301569223404f, 0.06668739020824432f, -0.13622017204761505f, 0.27202606201171875f, -0.007782696280628443f, 
-0.15621599555015564f, -0.12212610244750977f, 0.6726007461547852f, -0.053654029965400696f, 0.13273756206035614f, -0.04992598295211792f, 0.0018507905770093203f, -0.036657918244600296f, 
-0.2499302625656128f, -0.13580679893493652f, 0.30817005038261414f, -0.25740107893943787f, 0.1318395882844925f, 0.08298517763614655f, 0.13915182650089264f, -0.09525125473737717f, 
-0.06027420610189438f, -0.03738477826118469f, -0.052314624190330505f, 0.04224101081490517f, 0.011942945420742035f, 0.12137595564126968f, 0.030605653300881386f, 0.0779973641037941f, 
0.010996192693710327f, 0.03868863359093666f, 0.19734351336956024f, 0.12123901396989822f, 0.27919575572013855f, -0.007562871091067791f, 0.07204823940992355f, 0.267526775598526f, 
0.11736699938774109f, -0.09447292238473892f, -0.19034138321876526f, -0.05468573048710823f, 0.24627460539340973f, -0.256113201379776f, 0.2454223483800888f, 0.007142970338463783f, 
0.2795224189758301f, -0.08074253797531128f, 0.0908598080277443f, -0.0188678577542305f, 0.058248668909072876f, -0.07390762120485306f, -0.11655087023973465f, -0.002700923243537545f, 
-0.21736305952072144f, 0.08850501477718353f, 0.16255082190036774f, 0.027245553210377693f, 0.2253316044807434f, -0.07663081586360931f, -0.05041462928056717f, 0.43877413868904114f, 
-0.010764753445982933f, 0.20273564755916595f, 0.0934450626373291f, -0.06940487027168274f, -0.07889249175786972f, -0.022989705204963684f, 0.1636553853750229f, -0.16217942535877228f, 
0.13357925415039062f, 0.05627480894327164f, 0.3795984089374542f, -0.023560890927910805f, -0.10481392592191696f, 0.18994905054569244f, -0.06584497541189194f, -0.0023762453347444534f, 
-0.10091419517993927f, 0.18822498619556427f, -0.07015319168567657f, 0.1761026531457901f, 0.07005047798156738f, 0.131973534822464f, 0.14048102498054504f, -0.0020586135797202587f, 
-0.12502586841583252f, 0.26551613211631775f, 0.027808237820863724f, 0.07157331705093384f, 0.10531733930110931f, -0.169754758477211f, -0.1785224825143814f, -0.09137201309204102f, 
0.22141002118587494f, 0.002298631239682436f, -0.037836719304323196f, 0.12351547926664352f, 0.18478401005268097f, 0.08914345502853394f, -0.011758679524064064f, 0.028387080878019333f, 
-0.2196955382823944f, -0.09823098033666611f, -0.1848888099193573f, -0.056612372398376465f, -0.27645668387413025f, 0.12990190088748932f, 0.058586250990629196f, 0.05882035195827484f, 
0.06090295687317848f, 0.05077170208096504f, -0.07720387727022171f, 0.2283468097448349f, 0.07100433856248856f, -0.03600160405039787f, -0.0070671564899384975f, -0.10861021280288696f, 
0.009117702022194862f, -0.08874910324811935f, 0.13998587429523468f, -0.08108752965927124f, -0.09177615493535995f, 0.007051160559058189f, -0.010638054460287094f, 0.23338262736797333f, 
-0.05453498661518097f, -0.030672764405608177f, -0.11667142808437347f, -0.36470621824264526f, -0.19688504934310913f, -0.048891548067331314f, -0.14880630373954773f, -0.13942201435565948f, 
0.09560041129589081f, 0.183115616440773f, -0.21748964488506317f, 0.06615816056728363f, 0.12652769684791565f, 0.17681169509887695f, 0.017640992999076843f, 0.14404352009296417f, 
0.006910448893904686f, -0.20836018025875092f, 0.07372305542230606f, 0.024335382506251335f, 0.0535985566675663f, 0.20379126071929932f, -0.09222114086151123f, 0.11214625090360641f, 
-0.005601932294666767f, 0.03377623111009598f, 0.06555474549531937f, -0.1973058134317398f, -0.3835972249507904f, -0.29701948165893555f, -0.3650890290737152f, -0.05246981233358383f, 
-0.10343027114868164f, -0.29475289583206177f, -0.01708206534385681f, 0.00010993748583132401f, -0.0806007832288742f, 0.056270670145750046f, 0.1768324375152588f, 0.10750065743923187f, 
-0.05906969681382179f, 0.33330217003822327f, 0.009936563670635223f, -0.3094887137413025f, -0.01392957754433155f, 0.1381073147058487f, -0.12194284051656723f, 0.3012622892856598f, 
0.04285942763090134f, 0.09914115816354752f, 0.10582137852907181f, 0.07711232453584671f, 0.028675632551312447f, -0.2256694734096527f, -0.14510901272296906f, -0.08921153098344803f, 
-0.3850880265235901f, -0.06109398230910301f, -0.0960487425327301f, -0.3646121919155121f, -0.010354169644415379f, -0.130663201212883f, 0.08730220794677734f, -0.0769694373011589f, 
0.0016256720991805196f, -0.01661737635731697f, -0.007017800118774176f, 0.3860416114330292f, -0.002273665275424719f, -0.4018281400203705f, -0.1650266945362091f, 0.20453891158103943f, 
-0.18366070091724396f, 0.19709412753582f, 0.32150647044181824f, 0.1401473730802536f, 0.09128653258085251f, 0.21926239132881165f, 0.13788557052612305f, -0.12131086736917496f, 
-0.05708516016602516f, 0.03639275208115578f, -0.4778740406036377f, 0.083089180290699f, -0.18230272829532623f, -0.30538082122802734f, 0.13859248161315918f, -0.2861042618751526f, 
0.20922145247459412f, -0.22025176882743835f, -0.008958053775131702f, -0.08228108286857605f, 0.08443252742290497f, 0.15052171051502228f, 0.001252841204404831f, -0.15730740129947662f, 
-0.1694297045469284f, 0.28284379839897156f, -0.29833662509918213f, 0.10760217159986496f, 0.22523601353168488f, 0.14651720225811005f, -0.004867063369601965f, -0.0074778771959245205f, 
0.27796807885169983f, -0.2603553831577301f, -0.07541448622941971f, -0.17334377765655518f, -0.26107245683670044f, -0.017190856859087944f, -0.1610228419303894f, -0.1038515493273735f, 
-0.06866326183080673f, -0.07135118544101715f, 0.17496353387832642f, -0.1585005521774292f, 0.06518696248531342f, -0.03231557458639145f, 0.14786015450954437f, 0.031423769891262054f, 
-0.00234985607676208f, -0.007748730480670929f, -0.04196897894144058f, 0.15504160523414612f, -0.15302623808383942f, 0.08705729246139526f, 0.15432368218898773f, 0.07430583983659744f, 
-0.019063102081418037f, 0.27336418628692627f, -0.040699552744627f, -0.1031617671251297f, 0.010033170692622662f, -0.24917952716350555f, -0.3069910407066345f, 0.11374597251415253f, 
-0.2179471105337143f, 0.06439392268657684f, -0.12389152497053146f, -0.023271702229976654f, 0.19450566172599792f, -0.10068199783563614f, 0.1846441626548767f, 0.012222073040902615f, 
0.14175474643707275f, 0.0888594314455986f, 0.0017352274153381586f, 0.06082441657781601f, 0.0637584701180458f, 0.11730026453733444f, -0.10951882600784302f, -0.10573165118694305f, 
0.1742839813232422f, 0.18508481979370117f, 0.05293407291173935f, 0.245110884308815f, 0.08043224364519119f, -0.08570338785648346f, -0.04472333937883377f, -0.07839291542768478f, 
-0.1020430400967598f, 0.16633553802967072f, -0.3060370087623596f, -0.07321960479021072f, -0.13199838995933533f, -0.23429685831069946f, 0.16610516607761383f, -0.1711909919977188f, 
0.43498846888542175f, -0.13310255110263824f, 0.014881578274071217f, 0.059819042682647705f, -0.1828862875699997f, 0.08139762282371521f, 0.11520998179912567f, 0.04655878245830536f, 
0.10629624873399734f, 0.010292239487171173f, 0.021207574754953384f, 0.0772663950920105f, 0.17032292485237122f, 0.2154994010925293f, -0.15907564759254456f, 0.04506218805909157f, 
0.054630666971206665f, -0.08234833180904388f, -0.1525825411081314f, 0.12107270956039429f, -0.20332860946655273f, -0.05479215085506439f, 0.00711780646815896f, -0.22805215418338776f, 
0.19547221064567566f, -0.17795713245868683f, 0.2480449378490448f, -0.1366119682788849f, 0.08882305026054382f, -0.14742647111415863f, -0.27227383852005005f, 0.10776138305664062f, 
0.21685980260372162f, -0.020436877384781837f, 0.1424805223941803f, -0.017635954543948174f, 0.06254078447818756f, -0.0036602274049073458f, 0.13619233667850494f, 0.07690627872943878f, 
0.12120409309864044f, -0.13132540881633759f, -0.039446622133255005f, 0.06870710104703903f, -0.1617094874382019f, -0.0037837065756320953f, -0.009467440657317638f, 0.002248988253995776f, 
-0.03957108035683632f, 0.019400818273425102f, 0.033922553062438965f, -0.2235913723707199f, 0.09217510372400284f, -0.22789500653743744f, -0.05197574570775032f, -0.2952018678188324f, 
-0.2839086055755615f, 0.0005933154607191682f, 0.00540005462244153f, 0.010505873709917068f, 0.21032315492630005f, -0.03874848037958145f, -0.0636545941233635f, -0.01948556862771511f, 
0.03281332552433014f, 0.013505036942660809f, 0.18513831496238708f, -0.017393384128808975f, 0.007575124502182007f, 0.058439500629901886f, -0.16616815328598022f, 0.060671206563711166f, 
-0.29213038086891174f, 0.022023135796189308f, -0.1745997667312622f, -0.0032092472538352013f, -0.18331101536750793f, -0.16828927397727966f, -0.07738904654979706f, -0.02594822086393833f, 
-0.2591482698917389f, -0.2007654309272766f, -0.2556653916835785f, 0.30111128091812134f, -0.1345769762992859f, -0.19094379246234894f, 0.35363879799842834f, -0.05285258963704109f, 
0.04014851897954941f, -0.07016544044017792f, 0.18009786307811737f, -0.055105727165937424f, 0.06013510748744011f, 0.06445325911045074f, 0.10339530557394028f, 0.09749853610992432f, 
-0.031470201909542084f, 0.0867234468460083f, -0.0718768835067749f, -0.00839688815176487f, 0.10322879254817963f, 0.08492955565452576f, -0.10909648984670639f, -0.2558515667915344f, 
-0.04178939759731293f, 0.2466488480567932f, -0.3577415645122528f, -0.002564536640420556f, -0.00795030128210783f, 0.15424957871437073f, -0.17316493391990662f, -0.12554071843624115f, 
0.2751804292201996f, -0.31010347604751587f, -0.05280761793255806f, 0.04402682185173035f, -0.1840180605649948f, -0.14957891404628754f, 0.2136993706226349f, -0.30913037061691284f, 
0.0958050861954689f, 0.06435822695493698f, -0.26902902126312256f, 0.12009509652853012f, -0.14785902202129364f, -0.22822071611881256f, 0.12149018049240112f, -0.265184223651886f, 
0.2250267118215561f, -0.3775939345359802f, -0.0003322964475955814f, 0.23077891767024994f, -0.32697588205337524f, -0.003531289054080844f, 0.0126746641471982f, 0.005160494241863489f, 
0.1809486597776413f, -0.059737518429756165f, 0.32279348373413086f, 0.11675821989774704f, 0.05258220434188843f, -0.07511410117149353f, 0.15745340287685394f, -0.1116524189710617f, 
0.05975320190191269f, -0.22699607908725739f, 0.0459994412958622f, 0.03088008053600788f, -0.0060703749768435955f, 0.03733104467391968f, -0.14545422792434692f, 0.046235453337430954f, 
0.02021428383886814f, -0.2190186083316803f, -0.3139790892601013f, -0.30967050790786743f, -0.20950280129909515f, 0.025977564975619316f, -0.227808877825737f, 0.008890055119991302f, 
-0.0021103564649820328f, -0.006933572702109814f, 0.18753549456596375f, 0.06850015372037888f, -0.15518242120742798f, -0.1529294103384018f, -0.444915771484375f, 0.15036135911941528f, 
-0.047250326722860336f, -0.292900025844574f, 0.3618903160095215f, -0.265907347202301f, -0.11240419000387192f, -0.4413582384586334f, -0.6832039952278137f, -0.48933133482933044f, 
-0.4944523870944977f, -0.5422892570495605f, -0.38263067603111267f, -0.25652095675468445f, -0.16688703000545502f, -0.17487558722496033f, -0.09529800713062286f, -0.05150960758328438f, 
-0.02731988951563835f, 0.002013107994571328f, -0.010778718627989292f, -0.013023813255131245f, -0.017589418217539787f, -0.1705210655927658f, -0.2568645179271698f, -0.1353927105665207f, 
0.08322631567716599f, -0.3443507254123688f, -0.3367706537246704f, -0.2976648211479187f, -0.5150638818740845f, -0.2627062499523163f, -0.33519884943962097f, -0.3917693793773651f, 
-0.2816098630428314f, -0.5245418548583984f, -0.3299797475337982f, -0.11584354937076569f, -0.41022810339927673f, -0.07503525912761688f, -0.13065122067928314f, -0.11948370188474655f, 
-0.0814473107457161f, -0.011373291723430157f, -0.0004927597474306822f, -0.0032951582688838243f, 0.25052857398986816f, 0.3252043128013611f, 0.34430649876594543f, 0.3070437014102936f, 
0.23720410466194153f, 0.19676963984966278f, 0.05975213274359703f, -0.29403403401374817f, -0.5620072484016418f, -0.5215325951576233f, -0.570365309715271f, -0.6227085590362549f, 
-0.7343225479125977f, -0.7377587556838989f, -0.7886712551116943f, -0.4123497009277344f, -0.21788659691810608f, -0.1970389485359192f, -0.4317551851272583f, -0.19647401571273804f, 
-0.08539089560508728f, 0.09638508409261703f, 0.18416403234004974f, 0.2296135276556015f, 0.22988347709178925f, 0.2385139763355255f, 0.2538507282733917f, 0.24736441671848297f, 
-0.16587330400943756f, -0.09353137761354446f, -0.2866314649581909f, -0.44716376066207886f, -0.07058610767126083f, 0.031810831278562546f, 0.04584866389632225f, -0.04298553243279457f, 
-0.130714550614357f, -0.09589282423257828f, -0.11744329333305359f, -0.29798492789268494f, -0.2839527130126953f, -0.2428034096956253f, -0.23687469959259033f, -0.3133912980556488f, 
-0.23752187192440033f, -0.24838106334209442f, -0.2034049928188324f, -0.199685201048851f, 0.04177501052618027f, 0.10775208473205566f, 0.1778317093849182f, 0.27088505029678345f, 
0.23805208504199982f, 0.13449355959892273f, 0.2709498703479767f, -0.442688912153244f, -0.5216954946517944f, -0.15797016024589539f, -0.17269840836524963f, 0.06907211989164352f, 
0.08575969934463501f, 0.10779797285795212f, 0.003750995732843876f, 0.002490142360329628f, 0.013666491955518723f, 0.07490108907222748f, -0.03580396994948387f, -0.06551942974328995f, 
0.02471354603767395f, -0.05451541393995285f, -0.09130903333425522f, -0.11258810758590698f, -0.05056953430175781f, -0.0670405775308609f, 0.0696021169424057f, -0.11552990227937698f, 
-0.1702290177345276f, 0.09522541612386703f, 0.21130670607089996f, -0.2892496585845947f, 0.1009489893913269f, -0.04017307609319687f, 0.13648223876953125f, 0.009259981103241444f, 
-0.041974809020757675f, -0.179979145526886f, -0.04857775196433067f, -0.057961832731962204f, -0.14765755832195282f, -0.1609424352645874f, -0.14638303220272064f, -0.019237909466028214f, 
-0.027514588087797165f, 0.014431824907660484f, 0.0052145421504974365f, 0.10546671599149704f, 0.07807692885398865f, 0.12643247842788696f, 0.009812342934310436f, 0.055407196283340454f, 
0.2161029577255249f, -0.11941584199666977f, -0.249248206615448f, -0.19752737879753113f, 0.21875327825546265f, 0.14867478609085083f, -0.4958723187446594f, -0.12176301330327988f, 
0.3699631690979004f, 0.17534618079662323f, -0.00627836724743247f, -0.31800684332847595f, -0.13778136670589447f, -0.03535651043057442f, 0.04293646290898323f, -0.11340779066085815f, 
-0.027295734733343124f, 0.010740703903138638f, 0.028991015627980232f, 0.00124452100135386f, -0.0066833458840847015f, 0.09119278192520142f, 0.08576391637325287f, 0.11678953468799591f, 
-0.006247979588806629f, 0.06272881478071213f, 0.06352097541093826f, -0.13124996423721313f, -0.20824085175991058f, -0.7555169463157654f, 0.17267732322216034f, 0.14867474138736725f, 
-0.20604939758777618f, -0.19772280752658844f, -0.0846468061208725f, -0.054030779749155045f, -0.13748888671398163f, 0.03180563822388649f, -0.1389666050672531f, -0.05280815437436104f, 
-0.08065268397331238f, -0.1497049778699875f, 0.06251770257949829f, 0.07055509090423584f, 0.0062949163839221f, 0.04981780797243118f, 0.0802249014377594f, 0.01187836192548275f, 
0.03543925657868385f, -0.07767362147569656f, 0.05281510949134827f, 0.10080340504646301f, 0.044181544333696365f, -0.16487595438957214f, -0.20951449871063232f, -0.44372910261154175f, 
0.4756477475166321f, 0.13999469578266144f, -0.41728830337524414f, -0.27620941400527954f, -0.12169570475816727f, -0.1771097481250763f, -0.047705404460430145f, 0.002613274846225977f, 
0.023464858531951904f, -0.11955516040325165f, -0.2615099847316742f, -0.38508567214012146f, -0.038463860750198364f, 0.10277513414621353f, 0.023196212947368622f, 0.22807465493679047f, 
0.15404486656188965f, 0.20017138123512268f, 0.06856129318475723f, 0.11136602610349655f, 0.08233706653118134f, 0.2584351599216461f, 0.21177931129932404f, 0.25029560923576355f, 
0.3532855212688446f, -0.051645081490278244f, 0.49302050471305847f, 0.11582179367542267f, 0.06430568546056747f, 0.20811383426189423f, 0.19479994475841522f, 0.21080374717712402f, 
0.26973292231559753f, -0.07753796130418777f, 0.022600248456001282f, -0.17672112584114075f, -0.3338935375213623f, -0.011937201023101807f, -0.010152238421142101f, 0.11254933476448059f, 
0.24162372946739197f, 0.19137445092201233f, 0.22790896892547607f, 0.2815910577774048f, 0.16194239258766174f, 0.09338885545730591f, -0.06307932734489441f, -0.013020602986216545f, 
0.05019697919487953f, 0.10535173863172531f, -0.05034547299146652f, 0.16576741635799408f, 0.1995542347431183f, 0.2119094580411911f, 0.08755553513765335f, 0.04886995628476143f, 
-0.14201386272907257f, 0.036602407693862915f, 0.2843499779701233f, 0.009787612594664097f, -0.22535230219364166f, 0.08212446421384811f, 0.166622593998909f, -0.08207777887582779f, 
-0.051023632287979126f, -0.2723053991794586f, -0.32323524355888367f, 0.007073442917317152f, 0.05855758488178253f, -0.0010203575948253274f, -0.19444289803504944f, -0.13108709454536438f, 
0.016176877543330193f, 0.006590631790459156f, -0.08212689310312271f, -0.02352524735033512f, -0.19074659049510956f, -0.10439871996641159f, 0.4569438099861145f, 0.2625373303890228f, 
-0.1575189083814621f, -0.1503307819366455f, -0.12094444781541824f, -0.18150795996189117f, -0.06435694545507431f, 0.11236726492643356f, -0.09611134976148605f, -0.1578574776649475f, 
-0.21832862496376038f, -0.2998928725719452f, -0.286089152097702f, -0.24647824466228485f, -0.010818654671311378f, 0.15921826660633087f, 0.0661517009139061f, -0.08922034502029419f, 
-0.1544303447008133f, -0.1341404765844345f, -0.10502712428569794f, 0.1633545607328415f, 0.24724680185317993f, 0.044590555131435394f, -0.1605858951807022f, -0.308157354593277f, 
0.4381352365016937f, 0.21740609407424927f, 0.0009056265698745847f, -0.062282439321279526f, -0.2400282621383667f, -0.21942590177059174f, -0.19898401200771332f, -0.0019240602850914001f, 
-0.013532022945582867f, -0.0418696403503418f, 0.062217384576797485f, -0.3605645000934601f, -0.36250385642051697f, -0.39517804980278015f, -0.7526273727416992f, -0.3923981785774231f, 
-0.10096794366836548f, -0.22106972336769104f, -0.2201111763715744f, 0.1724037379026413f, 0.09547179192304611f, 0.0770922377705574f, 0.07087573409080505f, 0.1132553219795227f, 
-0.00457120593637228f, -0.3285427987575531f, 0.189208984375f, -0.13119375705718994f, 0.3178899586200714f, 0.12078328430652618f, -0.15279805660247803f, -0.016853325068950653f, 
0.17104345560073853f, 0.12227953225374222f, -0.030334312468767166f, -0.16232338547706604f, -0.1394079178571701f, -0.35385775566101074f, -0.2568323314189911f, -0.08526011556386948f, 
-0.24624931812286377f, -0.6804623007774353f, -0.5303950309753418f, -0.29558491706848145f, -0.19377252459526062f, -0.20838062465190887f, 0.07342448830604553f, -0.1562664955854416f, 
-0.013927105814218521f, 0.03944554924964905f, -0.03780881687998772f, -0.009057250805199146f, 0.18217258155345917f, -0.2813359797000885f, -0.5508368015289307f, 0.33654090762138367f, 
0.1947242021560669f, 0.08548471331596375f, -0.008623991161584854f, 0.1320102959871292f, 0.08909119665622711f, -0.27933961153030396f, -0.38691630959510803f, -0.5556827783584595f, 
-0.5358931422233582f, -0.714880108833313f, -0.4027186930179596f, -0.6336053013801575f, -0.8683587908744812f, -0.28162992000579834f, -0.008681932464241982f, -0.31600022315979004f, 
-0.29150986671447754f, -0.29715219140052795f, -0.1286873072385788f, -0.22967985272407532f, 0.013189686462283134f, 0.013842342421412468f, 0.17049875855445862f, -0.5450763702392578f, 
-0.3818226158618927f, 0.19049233198165894f, -0.11134135723114014f, 0.06714234501123428f, -0.11628996580839157f, -0.45512762665748596f, -0.18302026391029358f, -0.13013595342636108f, 
0.02291776053607464f, -0.15982447564601898f, -0.01683077961206436f, -0.5107018351554871f, -0.38986513018608093f, -0.2823151648044586f, -0.3983095586299896f, -0.32209205627441406f, 
-0.09000778943300247f, -0.08919531852006912f, -0.05297298729419708f, -0.2023562639951706f, -0.16913928091526031f, -0.13080604374408722f, -0.02030217833817005f, -0.06707793474197388f, 
0.19077609479427338f, -0.1363857090473175f, -0.0077356924302875996f, 0.0026607236359268427f, -0.08454981446266174f, -0.31064319610595703f, -0.3979756534099579f, -0.130883127450943f, 
-0.1632472574710846f, -0.39458149671554565f, -0.2029581516981125f, -0.6690626740455627f, -0.40305501222610474f, -0.21474266052246094f, -0.10596335679292679f, -0.09550298750400543f, 
-0.35084065794944763f, -0.29599180817604065f, -0.17872320115566254f, -0.20683516561985016f, -0.06797242164611816f, -0.10449346154928207f, -0.0739978477358818f, 0.05318344384431839f, 
-0.18797975778579712f, -0.5129455327987671f, 0.12857459485530853f, 0.1566866934299469f, 0.16257725656032562f, 0.09811823070049286f, 0.10105263441801071f, -0.2848655879497528f, 
-0.41321927309036255f, -0.2545497715473175f, -0.3943663239479065f, -0.5002464652061462f, -0.26541656255722046f, -0.4368273615837097f, -0.36367446184158325f, -0.15189532935619354f, 
0.1169486939907074f, -0.06002775952219963f, -0.30499163269996643f, -0.2993220090866089f, -0.11811342090368271f, 0.14482009410858154f, 0.04707971587777138f, -0.4301643669605255f, 
-0.45484092831611633f, -0.3164268136024475f, -0.31349727511405945f, -0.2021782547235489f, 0.14884254336357117f, -0.29852548241615295f, 0.302778422832489f, -0.030174458399415016f, 
-0.2187645435333252f, 0.005582795478403568f, -0.008229565806686878f, -0.14574462175369263f, -0.09519302099943161f, -0.18957331776618958f, -0.19291158020496368f, -0.112197145819664f, 
-0.19371002912521362f, -0.25278618931770325f, -0.23088353872299194f, -0.17975272238254547f, -0.024251453578472137f, -0.17674647271633148f, -0.3849193751811981f, -0.00871922355145216f, 
0.009510151110589504f, -0.11238185316324234f, -0.11590968072414398f, -0.24484001100063324f, -0.10583323240280151f, -0.3412885069847107f, -0.0021663326770067215f, -0.3478962779045105f, 
-0.24395447969436646f, 0.12067583948373795f, -0.16765014827251434f, -0.5207308530807495f, -0.4134654998779297f, -0.26265236735343933f, -0.19544298946857452f, -0.20765754580497742f, 
-0.16009260714054108f, -0.08829391747713089f, -0.09265454113483429f, -0.009087521582841873f, -0.040400292724370956f, -0.09449519962072372f, -0.04823090881109238f, -0.029315480962395668f, 
-0.28167328238487244f, -0.3908805251121521f, -0.2441270500421524f, -0.5102365612983704f, -0.4504452645778656f, -0.6676509976387024f, -0.2575511932373047f, -0.3212766945362091f, 
-0.2105892300605774f, -0.15546391904354095f, -0.08764323592185974f, -0.16535089910030365f, -0.28896236419677734f, -0.4299224615097046f, -0.4296938180923462f, -0.32746440172195435f, 
-0.07141971588134766f, 0.02205538935959339f, -0.03254630044102669f, -0.10148011893033981f, 0.03963814675807953f, -0.022420242428779602f, -0.044562339782714844f, 0.06594221293926239f, 
-0.09419503808021545f, -0.14241375029087067f, 0.12376488000154495f, 0.05645746737718582f, -0.11883322894573212f, -0.3422684967517853f, -0.5323866009712219f, -0.37506622076034546f, 
-0.1139727532863617f, -0.33199188113212585f, -0.34771642088890076f, -0.19430974125862122f, -0.3320193290710449f, -0.6938242316246033f, -0.7175861597061157f, -0.6179991364479065f, 
-0.42246514558792114f, -0.19180604815483093f, 0.07074683159589767f, 0.14017364382743835f, 0.12741656601428986f, -0.008636817336082458f, 0.0530686229467392f, 0.20006081461906433f, 
0.17321322858333588f, -0.00531780207529664f, -0.09553772956132889f, -0.2832946479320526f, -0.4069754183292389f, -0.3637184202671051f, -0.5140808820724487f, -0.4491928517818451f, 
-0.7156594395637512f, -0.562944769859314f, -0.24711444973945618f, -0.13094033300876617f, 0.20893137156963348f, -0.07534794509410858f, -0.5722365975379944f, -0.8095213174819946f, 
-0.6407321095466614f, -0.6060961484909058f, -0.43746939301490784f, -0.2861706018447876f, -0.23234960436820984f, -0.12805472314357758f, -0.07169236987829208f, -0.001847175764851272f, 
-0.06437338888645172f, -0.07152912765741348f, -0.05852983891963959f, 0.06478490680456161f, -0.28139084577560425f, -0.45263248682022095f, -0.6992641091346741f, -0.2708471119403839f, 
-0.4885697662830353f, -0.5883258581161499f, -0.4650741219520569f, -0.37559300661087036f, -0.32970285415649414f, 0.21356424689292908f, 0.24203617870807648f, 0.07908003032207489f, 
-0.34151148796081543f, -0.07191937416791916f, -0.8709308505058289f, -0.2901950180530548f, 0.011466806754469872f, -0.1604941338300705f, -0.2280205488204956f, -0.16863541305065155f, 
0.1355566382408142f, 0.16594982147216797f, 0.24873515963554382f, 0.037462539970874786f, -0.11090526729822159f, -0.1625121384859085f, -0.0013068694388493896f, -0.2856419086456299f, 
-0.5482282638549805f, -0.6050036549568176f, -0.7446298599243164f, -0.674636721611023f, 0.027492964640259743f, -0.18202191591262817f, -0.4633116126060486f, 0.20985087752342224f, 
0.23721899092197418f, 0.20067937672138214f, 0.4325670897960663f, 0.30361315608024597f, -0.5366759300231934f, -0.0808374434709549f, -0.18957331776618958f, -0.03150816634297371f, 
0.0827002301812172f, 0.29235339164733887f, 0.21836154162883759f, 0.188450425863266f, 0.6339068412780762f, 0.4931305944919586f, -0.02349269762635231f, -0.2084478884935379f, 
0.2696765065193176f, 0.09009741246700287f, -0.2524626553058624f, -0.5355948209762573f, -0.9580157995223999f, -0.5729779601097107f, -0.15272456407546997f, -0.16277365386486053f, 
-0.35422420501708984f, 0.1895981878042221f, 0.242360919713974f, 0.23086002469062805f, 0.19197051227092743f, -0.15689696371555328f, -0.5160514712333679f, -0.43464115262031555f, 
-0.7537344098091125f, -0.3651420474052429f, -0.7186335921287537f, -0.06815045326948166f, 0.24501094222068787f, 0.039111293852329254f, 0.7500116229057312f, 0.2662660777568817f, 
0.12038703262805939f, 0.09625373780727386f, -0.03134670853614807f, -1.1447685956954956f, -0.019569579511880875f, 0.10048776865005493f, -0.3509235382080078f, -0.44287753105163574f, 
-0.16138073801994324f, -0.043366871774196625f, 0.09273900836706161f, 0.25568658113479614f, 0.24875402450561523f, 0.225943461060524f, 0.1949326992034912f, 0.2630937397480011f, 
0.03772620111703873f, -0.0800647884607315f, -0.2585086226463318f, 0.3259711265563965f, 0.3835116922855377f, 0.0815538838505745f, 0.1302037239074707f, -0.05195784568786621f, 
-0.4868012070655823f, -0.2681537866592407f, -0.015458231791853905f, -0.19674767553806305f, -0.3120870292186737f, -0.2059909552335739f, -0.2783578932285309f, -0.19312509894371033f, 
-0.3229367136955261f, -0.35687392950057983f, -0.053338002413511276f, 0.17131268978118896f, 0.19865211844444275f, 0.23485906422138214f, 0.2526737451553345f, 0.24345479905605316f, 
0.23237276077270508f, 0.2229689210653305f, 0.21853214502334595f, 0.2012663185596466f, 0.19071917235851288f, 0.19402649998664856f, 0.1646391898393631f, 0.15184232592582703f, 
0.22441302239894867f, 0.21286936104297638f, 0.16488562524318695f, 0.15324383974075317f, 0.17959772050380707f, -0.39463141560554504f, -0.41226068139076233f, 0.06978423148393631f, 
0.11378642171621323f, 0.196271151304245f, 0.18218852579593658f, -0.20481182634830475f, 0.0010281495051458478f, 0.1693064570426941f, 0.23693358898162842f, 0.23923204839229584f, 
-0.0013054582523182034f, 0.0026163901202380657f, -0.005985795054584742f, 0.000568322604522109f, -0.008162504993379116f, -0.01787933148443699f, 0.00027261950890533626f, 0.1445757895708084f, 
-0.14778831601142883f, -0.24070186913013458f, -0.0013990665320307016f, -0.04401717334985733f, -0.0564008392393589f, -0.3537767827510834f, -0.37839213013648987f, -0.15805254876613617f, 
-0.2545467019081116f, -0.5848618745803833f, -0.7293311357498169f, -0.236831396818161f, -0.39591163396835327f, -0.1342233568429947f, -0.09127263724803925f, -0.082008495926857f, 
-0.10683596134185791f, -0.024224933236837387f, -0.010981360450387001f, -0.022335954010486603f, -0.008356621488928795f, 0.2768764793872833f, 0.010324176400899887f, 0.33030709624290466f, 
0.105324886739254f, -0.279610276222229f, -0.5372359752655029f, -0.06204036623239517f, -0.12594003975391388f, -0.34828653931617737f, -0.5381698608398438f, -0.3477684259414673f, 
-0.04244609177112579f, -0.7035064101219177f, -0.11863858252763748f, -0.3145500421524048f, 0.13229641318321228f, -0.22094766795635223f, -0.07887878268957138f, -0.2440659999847412f, 
0.006906953640282154f, -0.1534324437379837f, 0.06112508103251457f, 0.030005132779479027f, 0.0012211137218400836f, 0.25379517674446106f, 0.2077690064907074f, -0.30672964453697205f, 
0.22712497413158417f, -0.1454962193965912f, -0.37715762853622437f, -0.17494751513004303f, -0.1861840784549713f, 0.09766533225774765f, -0.0818646028637886f, 0.02552744746208191f, 
-0.015032310970127583f, -0.0016593788750469685f, -0.2974708676338196f, 0.04391265660524368f, -0.09246519953012466f, -0.2915861904621124f, -0.32406774163246155f, -0.15530666708946228f, 
-0.23634910583496094f, -0.24599650502204895f, 0.2553161680698395f, 0.0006510417442768812f, -0.3452300429344177f, -0.0591178797185421f, -0.005881969351321459f, 0.10721281915903091f, 
0.10530666261911392f, 0.17324310541152954f, -0.3416881263256073f, -0.5590698719024658f, -0.004153533838689327f, 0.16623447835445404f, 0.05446351692080498f, -0.07250713557004929f, 
-0.26975229382514954f, 0.06967777758836746f, 0.06863405555486679f, -0.2412080019712448f, -0.19375306367874146f, -0.04680144414305687f, -0.029242107644677162f, -0.16713829338550568f, 
-0.1207793578505516f, -0.03338371589779854f, -0.06079815700650215f, 0.13438132405281067f, 0.041174907237291336f, -0.1441396176815033f, -0.08337397128343582f, 0.04802325367927551f, 
-0.04656165465712547f, 0.038762688636779785f, -0.15120886266231537f, -0.28029027581214905f, -0.38388702273368835f, -0.014351578429341316f, -0.06859097629785538f, 0.05711512640118599f, 
-0.007062741555273533f, -0.29218077659606934f, -0.08314630389213562f, -0.1878737062215805f, -0.21491266787052155f, -0.14792917668819427f, 0.10716855525970459f, -0.0622415766119957f, 
-0.24698428809642792f, -0.2048429399728775f, 0.002439234871417284f, 0.1328972727060318f, -0.09766227751970291f, -0.0008162630256265402f, -0.28949031233787537f, -0.08778375387191772f, 
-0.2772515118122101f, -0.6795784831047058f, -0.026432475075125694f, 0.09841902554035187f, -0.17654477059841156f, -0.30639249086380005f, 0.1422639936208725f, 0.11011522263288498f, 
-0.12994462251663208f, -0.09980027377605438f, -0.06414589285850525f, -0.017155010253190994f, -0.18912743031978607f, 0.12087149918079376f, 0.17292873561382294f, -0.05336887016892433f, 
0.05076315999031067f, -0.10400645434856415f, -0.22019702196121216f, -0.37453675270080566f, -0.27652859687805176f, -0.18979649245738983f, -0.2716807723045349f, -0.2537158131599426f, 
-0.34525683522224426f, -0.3504919707775116f, 0.19350937008857727f, -0.1253511905670166f, 0.0315355584025383f, -0.03889072313904762f, -0.12289421260356903f, 0.10331238061189651f, 
-0.07553309202194214f, -0.13078436255455017f, -0.1337229609489441f, -0.01256914809346199f, 0.07835186272859573f, -0.05026240274310112f, 0.0760868713259697f, -0.06178127974271774f, 
-0.21325433254241943f, -0.16541476547718048f, -0.1601884663105011f, -0.23232151567935944f, -0.17567099630832672f, -0.07631833851337433f, -0.14727140963077545f, -0.03615783154964447f, 
-0.135607048869133f, -0.0008436310454271734f, 0.2287272959947586f, -0.01104444544762373f, 0.0412023663520813f, -0.3450762927532196f, -0.020668143406510353f, 0.005115897860378027f, 
-0.39944031834602356f, -0.2646859586238861f, -0.02062731795012951f, 0.12060422450304031f, 0.16008257865905762f, 0.05341669172048569f, 0.021085714921355247f, -0.17222772538661957f, 
-0.09957742691040039f, -0.24916517734527588f, -0.132361501455307f, -0.12331663817167282f, -0.09703552722930908f, -0.021761707961559296f, 0.0786178857088089f, -0.2264549881219864f, 
-0.5299901962280273f, -0.09570453315973282f, -0.21227341890335083f, -0.3603481650352478f, -0.7958822846412659f, -0.2589249610900879f, -0.17320595681667328f, 0.0077431695535779f, 
-0.011610419489443302f, 0.01225176453590393f, -0.4427797496318817f, -0.3826688528060913f, 0.08899665623903275f, 0.2650337517261505f, 0.0361892394721508f, 0.04250308871269226f, 
-0.06193127483129501f, -0.10008636862039566f, -0.0670459046959877f, 0.11833737045526505f, -0.19761136174201965f, -0.11747542023658752f, -0.25162172317504883f, -0.3232537508010864f, 
-0.2284672111272812f, -0.17599472403526306f, -0.41677698493003845f, -0.52794349193573f, -0.330655574798584f, -0.13529661297798157f, -0.07152507454156876f, -0.18373966217041016f, 
-0.0523681715130806f, -0.11757022887468338f, 0.28157979249954224f, 0.29909399151802063f, 0.06652465462684631f, 0.06901539862155914f, 0.15892723202705383f, 0.040569648146629333f, 
-0.09298766404390335f, 0.08969569951295853f, 0.08620492368936539f, -0.027097564190626144f, -0.07639912515878677f, -0.11153656989336014f, -0.009024170227348804f, 0.035505373030900955f, 
0.013822652399539948f, -0.038708530366420746f, -0.17499083280563354f, -0.31101223826408386f, -0.31367430090904236f, -0.32463592290878296f, -0.11124692857265472f, 0.17351332306861877f, 
-0.09750356525182724f, -0.18926319479942322f, 0.16722562909126282f, -0.44324302673339844f, 0.29772382974624634f, -0.1685708463191986f, -0.2980651557445526f, -0.09965503215789795f, 
-0.012483160011470318f, 0.1524667590856552f, 0.12442082911729813f, -0.15801653265953064f, -0.10587860643863678f, 0.08042670786380768f, -0.07379850000143051f, -0.10466165095567703f, 
-0.1300206184387207f, -0.13308647274971008f, -0.19616559147834778f, -0.6685800552368164f, -0.42820414900779724f, -0.6154577136039734f, -0.19243843853473663f, -0.16294261813163757f, 
-0.3093165159225464f, 0.16154956817626953f, -0.46014711260795593f, 0.021026533097028732f, -0.13024233281612396f, 0.15161395072937012f, -0.051668744534254074f, -0.1532210111618042f, 
-0.4776083827018738f, -0.20959922671318054f, 0.06927389651536942f, 0.22366389632225037f, 0.00953594222664833f, 0.05264726281166077f, 0.1538500040769577f, 0.1837417483329773f, 
0.07298316806554794f, -0.03553544729948044f, -0.04823398217558861f, -0.43361160159111023f, -0.5795655846595764f, -0.07270044833421707f, -0.2256438285112381f, -0.2846495509147644f, 
0.07191434502601624f, -0.11793379485607147f, -0.23615233600139618f, -0.42904382944107056f, 0.3061027526855469f, -0.45956116914749146f, -0.3044983446598053f, -0.3678044378757477f, 
-0.0037791444920003414f, -0.24446073174476624f, -0.30232876539230347f, -0.019555140286684036f, 0.11443489789962769f, 0.1840331256389618f, 0.23014366626739502f, 0.09291943907737732f, 
0.3427276015281677f, 0.21271081268787384f, -0.04553384706377983f, -0.2837067246437073f, -0.5052918195724487f, -0.5905023217201233f, -0.2811168134212494f, -0.21038898825645447f, 
-0.536041259765625f, -0.0068337260745465755f, -0.3275474011898041f, 0.06437709927558899f, -0.0610092431306839f, 0.09982531517744064f, 0.16741669178009033f, -0.4050008952617645f, 
-0.5786142349243164f, 0.007009801920503378f, -0.01273961178958416f, -0.27492302656173706f, 0.08281724154949188f, -0.007073588669300079f, 0.050717826932668686f, 0.3687802255153656f, 
0.17412425577640533f, 0.27942582964897156f, 0.246057391166687f, 0.08497139066457748f, -0.03293439373373985f, -0.22831903398036957f, -0.19444213807582855f, -0.33279094099998474f, 
-0.382717102766037f, -0.27777981758117676f, -0.04683511331677437f, 0.005495419725775719f, -0.15266656875610352f, 0.04727691411972046f, 0.34700313210487366f, 0.21386897563934326f, 
0.04128829389810562f, -0.013730929233133793f, 0.11662466824054718f, -0.36756396293640137f, -0.04591195285320282f, -0.47268807888031006f, -0.2674131393432617f, 0.0832594782114029f, 
0.3797299861907959f, 0.2810848653316498f, 0.19313795864582062f, 0.09918805211782455f, 0.2185269594192505f, -0.021506117656826973f, 0.04981917887926102f, -0.08173803240060806f, 
-0.2360232174396515f, -0.4914718568325043f, -0.31483927369117737f, -0.1849987953901291f, 0.1570144146680832f, 0.026774771511554718f, -0.11714179068803787f, -0.016430949792265892f, 
0.04562627896666527f, 0.0890577957034111f, 0.16187122464179993f, 0.16426648199558258f, -0.44974422454833984f, -0.5403760671615601f, -0.052486199885606766f, -0.405461847782135f, 
-0.15678992867469788f, 0.1641748696565628f, 0.16665057837963104f, 0.19755947589874268f, 0.21508216857910156f, 0.1357145756483078f, -0.07015246152877808f, -0.15266990661621094f, 
-0.09401673078536987f, -0.16224581003189087f, -0.2316667139530182f, -0.17597432434558868f, 0.16133922338485718f, -0.11216767877340317f, 0.0895957499742508f, 0.029739633202552795f, 
-0.19462116062641144f, 0.1981673389673233f, 0.03166518732905388f, 0.21635116636753082f, 0.14572171866893768f, -0.35301563143730164f, -0.8342249989509583f, -0.7616129517555237f, 
-0.0618821457028389f, -0.34651485085487366f, 0.11584408581256866f, 0.05207035690546036f, 0.15165133774280548f, -0.04789997637271881f, 0.08015390485525131f, 0.08888150006532669f, 
0.04059518128633499f, -0.03869626671075821f, -0.18471261858940125f, -0.06889936327934265f, 0.038861844688653946f, 0.07208865880966187f, -0.06816965341567993f, -0.035047635436058044f, 
0.10244408994913101f, -0.02092154696583748f, 0.08973117917776108f, 0.10966476052999496f, -0.11214252561330795f, 0.10778765380382538f, 0.16292481124401093f, -0.17558243870735168f, 
-0.22873200476169586f, -0.04178541526198387f, -0.05738743767142296f, -0.19885019958019257f, -0.24572168290615082f, 0.1520949751138687f, 0.09405550360679626f, -0.08297283202409744f, 
0.11934838443994522f, 0.006567091681063175f, 0.15266500413417816f, 0.008829156868159771f, -0.08292471617460251f, -0.014816631563007832f, -0.15156887471675873f, 0.04977697879076004f, 
0.12938205897808075f, 0.24050885438919067f, -0.015149140730500221f, 0.03662709891796112f, 0.17546074092388153f, 0.10915906727313995f, 0.12581419944763184f, 0.05335316061973572f, 
0.0019962203223258257f, -0.10827024281024933f, -0.47029808163642883f, 0.04648036137223244f, -0.06698814034461975f, 0.04833671450614929f, -0.03758206218481064f, 0.10743717104196548f, 
-0.06469865888357162f, 0.10168686509132385f, -0.1825602501630783f, 0.04651322215795517f, 0.06919492036104202f, -0.06029713526368141f, -0.0634395033121109f, -0.06738253682851791f, 
0.2300960272550583f, 0.14165176451206207f, -0.08661449700593948f, 0.04632244631648064f, 0.08480186015367508f, 0.0320262610912323f, 0.12004315108060837f, 0.04340607672929764f, 
0.27431201934814453f, 0.15457679331302643f, -0.0690135583281517f, 0.07728724926710129f, -0.24004176259040833f, -0.45190468430519104f, 0.17447754740715027f, -0.12110476195812225f, 
-0.027790997177362442f, 0.06564364582300186f, -0.1334901601076126f, -0.43601781129837036f, -0.4327734112739563f, 0.08344916999340057f, 0.23806285858154297f, -0.027953360229730606f, 
0.388164222240448f, 0.14552457630634308f, -0.04774913191795349f, -0.08950664848089218f, 0.18864428997039795f, 0.12394599616527557f, 0.10830824822187424f, 0.06545548886060715f, 
0.16996203362941742f, 0.08681215345859528f, 0.07455866783857346f, 0.04810969904065132f, -0.033301595598459244f, -0.36221009492874146f, -0.37963002920150757f, -0.0353684239089489f, 
-0.4149058759212494f, -0.25900253653526306f, 0.14114336669445038f, 0.02560983970761299f, -0.33838972449302673f, -0.09572384506464005f, -0.09259141236543655f, -0.21285440027713776f, 
-0.059150196611881256f, 0.30213499069213867f, 0.07563021034002304f, -0.20909138023853302f, -0.11104105412960052f, -0.01909680850803852f, 0.13338147103786469f, 0.05658622831106186f, 
-0.019630590453743935f, -0.07703340798616409f, -0.19546638429164886f, 0.39809370040893555f, 0.34085750579833984f, 0.10889206826686859f, -0.2993965148925781f, 0.04848343878984451f, 
0.3715093433856964f, 0.3206949830055237f, -0.4047066271305084f, -0.1663578897714615f, -0.13453595340251923f, -0.12935765087604523f, -0.11549993604421616f, 0.16535332798957825f, 
-0.11850487440824509f, -0.05340968072414398f, -0.16087384521961212f, 0.05465561896562576f, -0.008516051806509495f, 0.1877398043870926f, -0.12395112216472626f, 0.013149225153028965f, 
0.1824454665184021f, -0.04079004004597664f, 0.046472277492284775f, 0.06840988248586655f, 0.42702358961105347f, 0.17881153523921967f, 0.6487476825714111f, 0.0032676560804247856f, 
-0.3719924986362457f, -0.003464329056441784f, 0.1908259093761444f, 0.01919606700539589f, -0.035570040345191956f, 0.12222471088171005f, -0.3952316343784332f, -0.343951553106308f, 
0.2886711359024048f, 0.10680756717920303f, -0.3259400725364685f, -0.1799440085887909f, -0.010831954888999462f, 0.21689479053020477f, -0.0036239258479326963f, 0.019501803442835808f, 
-0.07695143669843674f, 0.019415022805333138f, 0.06260877102613449f, -0.08050069957971573f, -0.23623135685920715f, -0.15304464101791382f, 0.2410103976726532f, 0.11794105917215347f, 
0.42535731196403503f, -0.4973832964897156f, -0.45077088475227356f, -0.03883536532521248f, -0.23715327680110931f, -0.10906428098678589f, -0.08501049131155014f, -0.23071488738059998f, 
0.08679137378931046f, 0.03153473138809204f, 0.2087194323539734f, 0.27573299407958984f, -0.38969284296035767f, -0.3426738977432251f, -0.26590606570243835f, -0.4181371331214905f, 
-0.39083558320999146f, 0.0068753985688090324f, -0.08022469282150269f, -0.06069552153348923f, -0.26225993037223816f, 0.02065192349255085f, -0.24452684819698334f, -0.35541391372680664f, 
-0.5490342974662781f, -0.21486638486385345f, -0.5164986848831177f, -0.3701031506061554f, -0.3955225646495819f, -0.11794142425060272f, -0.20435641705989838f, -0.01923363097012043f, 
-0.021925894543528557f, -0.024757051840424538f, 0.1467418074607849f, 0.11543422937393188f, -0.6443471312522888f, -0.3598811626434326f, -0.5170782804489136f, -0.20655538141727448f, 
-0.4224684238433838f, -0.7243947982788086f, -0.08452197909355164f, -0.4693467915058136f, -0.713437557220459f, -0.910333514213562f, -0.9170049428939819f, -0.4405822455883026f, 
-0.5303704738616943f, -0.6157872080802917f, -0.5359567999839783f, -0.36761370301246643f, -0.2905842959880829f, -0.3563370108604431f, -0.30226826667785645f, -0.032919175922870636f, 
-0.022527571767568588f, -0.001762215862981975f, -0.010887384414672852f, -0.021404821425676346f, -0.1728256195783615f, -0.38667795062065125f, -0.7196148633956909f, -0.3073437511920929f, 
-0.41064125299453735f, -0.1434459388256073f, -0.8689137101173401f, -0.44477397203445435f, -0.7189769148826599f, -0.7307820320129395f, -0.6397925019264221f, -0.6851894855499268f, 
-0.5572978854179382f, -0.7102989554405212f, -0.5165416598320007f, -0.2379598170518875f, -0.3740530014038086f, -0.3789372444152832f, -0.2866598963737488f, -0.21293656527996063f, 
-0.007231257855892181f, -0.03879382461309433f, -0.015775907784700394f, -0.0009607567335478961f, -0.014632982201874256f, -0.013487939722836018f, -0.012647870928049088f, 0.00733938068151474f, 
-0.0041976855136454105f, -0.0013883261708542705f, -0.002201841212809086f, -0.016165420413017273f, -0.1352088898420334f, -0.13331541419029236f, 0.15591773390769958f, -0.19492985308170319f, 
-0.25362202525138855f, -0.4215627610683441f, -0.2694164216518402f, -0.29696255922317505f, -0.35867223143577576f, -0.2742064297199249f, -0.06175808236002922f, -0.11625545471906662f, 
-0.019925279542803764f, -0.021821266040205956f, -0.007149124518036842f, -0.003090632613748312f, -0.0006844094605185091f, 0.006849340628832579f, -0.01432646345347166f, -0.0031973966397345066f, 
0.14055360853672028f, -0.14522375166416168f, 0.001331627368927002f, 0.21033023297786713f, -0.11766073107719421f, -0.3849961459636688f, -0.046962544322013855f, -0.009902040474116802f, 
-0.15451131761074066f, -0.309310644865036f, -0.3068919777870178f, 0.16937941312789917f, -0.3174591660499573f, 0.21500681340694427f, -0.16401806473731995f, 0.1868557184934616f, 
-0.14601142704486847f, 0.012877610512077808f, -0.20122317969799042f, -0.07512426376342773f, -0.052007030695676804f, -0.03184083476662636f, 0.07142093032598495f, -0.01578039862215519f, 
-0.007418718654662371f, 0.21396973729133606f, -0.24733272194862366f, 0.08946461975574493f, 0.06475192308425903f, -0.2628181576728821f, -0.3190920650959015f, 0.0974145233631134f, 
0.014965448528528214f, -0.07812278717756271f, -0.08548146486282349f, -0.07730239629745483f, -0.11754973232746124f, -0.2765069305896759f, 0.08749840408563614f, -0.11952449381351471f, 
-0.1641617864370346f, -0.1501050740480423f, 0.2972942590713501f, -0.12820537388324738f, -0.15087758004665375f, 0.16964098811149597f, 0.1246323361992836f, -0.27640125155448914f, 
-0.08811619132757187f, 0.0017894473858177662f, -0.017718208953738213f, 0.09168154001235962f, -0.2460019290447235f, 0.046403445303440094f, -0.21891027688980103f, -0.1513967514038086f, 
0.13773243129253387f, 0.09133381396532059f, 0.046032655984163284f, -0.25568073987960815f, -0.03542010113596916f, -0.09874431788921356f, -0.16729936003684998f, -0.2737632095813751f, 
0.15351474285125732f, 0.26303139328956604f, -0.05610998719930649f, -0.25624164938926697f, -0.06748274713754654f, -0.11156062036752701f, 0.2002541869878769f, 0.023040469735860825f, 
-0.28638824820518494f, -0.17360082268714905f, -0.04807812348008156f, -0.03401612862944603f, -0.00218206737190485f, -0.2155880630016327f, -0.11440673470497131f, -0.18830668926239014f, 
-0.014117277227342129f, 0.06903368979692459f, -0.22137239575386047f, 0.15895402431488037f, -0.10440189391374588f, -0.039254531264305115f, -0.14945827424526215f, -0.16816306114196777f, 
-0.013561878353357315f, 0.03746115788817406f, 0.09233451634645462f, 0.015392495319247246f, 0.22907023131847382f, -0.10810565203428268f, -0.02806447073817253f, -0.3306417763233185f, 
0.04421041160821915f, 0.06120949611067772f, -0.3146902024745941f, -0.060410916805267334f, -0.433865487575531f, -0.3011944890022278f, -0.015608632937073708f, 0.010801402851939201f, 
-0.06941233575344086f, -0.16759218275547028f, 0.3087654411792755f, -0.09940677136182785f, -0.12943236529827118f, -0.013000293634831905f, 0.04135482385754585f, -0.059502821415662766f, 
0.0006293781916610897f, 0.14292718470096588f, -0.07113686949014664f, -0.1389707773923874f, 0.06445416808128357f, 0.12744122743606567f, -0.2222978174686432f, -0.200229212641716f, 
-0.20878049731254578f, -0.05964977294206619f, -0.028007877990603447f, -0.26291972398757935f, -0.49373823404312134f, -0.3015047609806061f, 0.23855549097061157f, -0.3104777932167053f, 
-0.02195807173848152f, -0.015456038527190685f, -0.03213871642947197f, -0.06763622164726257f, -0.06433352082967758f, -0.009520762600004673f, 0.07703762501478195f, 0.08800551295280457f, 
0.08479827642440796f, -0.006192707922309637f, -0.0671510249376297f, -0.24640989303588867f, -0.2900563180446625f, -0.06949688494205475f, -0.1643945723772049f, -0.09064216911792755f, 
0.15444694459438324f, 0.1255635917186737f, -0.29181188344955444f, 0.17473182082176208f, -0.14935308694839478f, -0.21346203982830048f, -0.43288034200668335f, -0.059536661952733994f, 
-0.33734139800071716f, -0.047396913170814514f, 0.005019862204790115f, 0.07483897358179092f, -0.3140277862548828f, -0.29042792320251465f, 0.06104221194982529f, 0.26964324712753296f, 
0.06054069101810455f, 0.15016448497772217f, -0.1178591325879097f, -0.08851481229066849f, -0.15224820375442505f, -0.03497866913676262f, -0.07255925983190536f, 0.06463123112916946f, 
-0.04883050173521042f, -0.1084141880273819f, 0.2798271179199219f, -0.2572229504585266f, -0.07911239564418793f, 0.04553250968456268f, 0.03515743464231491f, -0.5631899237632751f, 
-0.6202598810195923f, -0.35266536474227905f, -0.1796392798423767f, -0.03482915461063385f, 0.020614642649888992f, 0.02525259740650654f, -0.3857840597629547f, -0.17385296523571014f, 
0.22894488275051117f, 0.13882729411125183f, -0.07249373197555542f, 0.03281861171126366f, 0.004015625454485416f, 0.12197117507457733f, -0.07605798542499542f, -0.02863151766359806f, 
0.003959831316024065f, -0.09021848440170288f, -0.09580262005329132f, -0.14698709547519684f, 0.05091194808483124f, -0.247067391872406f, 0.1481962651014328f, 0.1347190886735916f, 
0.03331573307514191f, 0.09884535521268845f, -0.2285657376050949f, -0.25231122970581055f, -0.15325593948364258f, -0.03636666387319565f, 0.2317223697900772f, 0.18557360768318176f, 
-0.31019875407218933f, -0.1051480770111084f, 0.10773096978664398f, 0.0897214338183403f, 0.06605689227581024f, -0.11623676121234894f, 0.03745622932910919f, -0.010147662833333015f, 
-0.13689245283603668f, -0.16113558411598206f, 0.01439802348613739f, 0.01494308840483427f, 0.26475024223327637f, -0.08653559535741806f, -0.14635129272937775f, -0.2603510022163391f, 
0.0277701448649168f, 0.08562979847192764f, 0.08939897269010544f, 0.2690154016017914f, -0.05483316630125046f, -0.04472590237855911f, -0.21137557923793793f, -0.0749695897102356f, 
0.19007672369480133f, -0.11165925860404968f, -0.1272110491991043f, -0.06900057196617126f, 0.06937374919652939f, 0.10501068830490112f, -0.09223552793264389f, -0.08115382492542267f, 
-0.010178675875067711f, 0.04222582280635834f, 0.042785171419382095f, -0.04452338069677353f, -0.07829923927783966f, 0.14385664463043213f, -0.26980888843536377f, -0.005263906437903643f, 
-0.014360846020281315f, -0.34058085083961487f, 0.1917327642440796f, 0.13175736367702484f, 0.14782468974590302f, -0.01467541791498661f, 0.4171319305896759f, 0.16841548681259155f, 
-0.10580001026391983f, -0.2989663779735565f, -0.009095100685954094f, -0.19313271343708038f, -0.3630298674106598f, 0.01969991996884346f, 0.07490120828151703f, 0.14968617260456085f, 
0.14895598590373993f, 0.1028260737657547f, 0.23414291441440582f, 0.052665915340185165f, 0.11923626065254211f, -0.1057732030749321f, -0.2544378936290741f, -0.16056261956691742f, 
0.01849234104156494f, 0.12285631895065308f, -0.1513625532388687f, -0.012008750811219215f, -0.03729628399014473f, 0.17967583239078522f, 0.14841563999652863f, -0.008450854569673538f, 
0.489041268825531f, -0.08065234124660492f, -0.4778134226799011f, -0.24703004956245422f, -0.018688788637518883f, -0.15514518320560455f, -0.03425063565373421f, -0.03434490039944649f, 
0.019293710589408875f, 0.20566758513450623f, 0.21062567830085754f, 0.12548159062862396f, 0.26381251215934753f, 0.1315927356481552f, -0.00016855399007909f, -0.16766417026519775f, 
-0.15999369323253632f, -0.15933996438980103f, -0.04427473992109299f, 0.02488979697227478f, 0.03643132001161575f, 0.02742430381476879f, -0.1376599222421646f, 0.011005769483745098f, 
0.2074497640132904f, 0.24542708694934845f, 0.07696902006864548f, -0.2525177597999573f, -0.32381004095077515f, -0.2885631322860718f, -0.0210370235145092f, -0.18184801936149597f, 
0.08343444019556046f, -0.07207991927862167f, 0.28842028975486755f, 0.13973604142665863f, 0.21861809492111206f, 0.1249305009841919f, 0.06430687755346298f, 0.14480124413967133f, 
0.16464334726333618f, 0.11413364857435226f, -0.014476197771728039f, -0.147500142455101f, -0.20218774676322937f, -0.12398332357406616f, 0.21619068086147308f, 0.017233815044164658f, 
-0.0946805402636528f, 0.1727781891822815f, 0.29265186190605164f, -0.003831616835668683f, 0.19059616327285767f, 0.030595334246754646f, -0.35937073826789856f, -0.3144627809524536f, 
-0.004521992988884449f, -0.36687150597572327f, -0.25004804134368896f, 0.0970667153596878f, 0.2753073573112488f, 0.15527001023292542f, 0.19658233225345612f, 0.16418114304542542f, 
0.23627418279647827f, 0.02183789759874344f, 0.07820989936590195f, -0.17861902713775635f, -0.3441404104232788f, -0.23185192048549652f, -0.1455003172159195f, -0.12651555240154266f, 
0.13376730680465698f, 0.04803791269659996f, -0.11751234531402588f, 0.18908773362636566f, -0.04400113597512245f, 0.25827160477638245f, 0.1120506301522255f, 0.17454232275485992f, 
-0.5173628330230713f, -0.4006841480731964f, -0.011627424508333206f, -0.43837255239486694f, -0.07346568256616592f, 0.12154116481542587f, 0.1161927729845047f, 0.10199011117219925f, 
0.23517879843711853f, 0.10493984073400497f, 0.05717771500349045f, 0.06660553812980652f, -0.0005312480498105288f, -0.24731020629405975f, -0.08642998337745667f, 0.3387489914894104f, 
-0.014166519977152348f, -0.1875370889902115f, 0.20242494344711304f, -0.15875856578350067f, 0.08335232734680176f, 0.13588948547840118f, 0.0061774966306984425f, 0.22887690365314484f, 
0.11051671206951141f, -0.06759296357631683f, -0.46000829339027405f, -0.29786616563796997f, 0.0004064452077727765f, -0.15342402458190918f, -0.07500217854976654f, 0.13301362097263336f, 
0.055281464010477066f, 0.030203979462385178f, 0.10242020338773727f, 0.023799937218427658f, 0.10148675739765167f, -0.0919932872056961f, -0.15164874494075775f, 0.039823539555072784f, 
0.05035153776407242f, -0.06647524982690811f, -0.06997913122177124f, 0.08155272901058197f, 0.01498663891106844f, -0.05542309209704399f, 0.309884250164032f, 0.12509897351264954f, 
0.06787814944982529f, 0.14494919776916504f, -0.10115812718868256f, 0.17571915686130524f, -0.3815680742263794f, 0.24446599185466766f, -0.008620025590062141f, -0.06731085479259491f, 
-0.1357872039079666f, 0.14701621234416962f, -0.03665415197610855f, 0.11133664846420288f, -0.06484713405370712f, 0.0024646655656397343f, 0.21474891901016235f, -0.05380503460764885f, 
0.009152485057711601f, -0.1327531486749649f, 0.15372343361377716f, 0.1711321324110031f, 0.01906464993953705f, -0.09291297942399979f, 0.004649194423109293f, 0.07238376885652542f, 
0.11038632690906525f, -0.011769394390285015f, 0.15807762742042542f, 0.08835896849632263f, 0.05367015302181244f, -0.09701323509216309f, -0.18195156753063202f, 0.18159420788288116f, 
0.03288321569561958f, 0.07359456270933151f, 0.027080709114670753f, 0.07942339777946472f, 0.07177550345659256f, -0.047223422676324844f, -0.2644326090812683f, 0.06114326789975166f, 
0.22299176454544067f, 0.026095252484083176f, 0.33725765347480774f, 0.378165602684021f, 0.08964067697525024f, 0.0051400200463831425f, 0.07451753318309784f, 0.0061229681596159935f, 
0.12468967586755753f, -0.0571163110435009f, 0.030970294028520584f, 0.16362397372722626f, 0.15221868455410004f, -0.10087575018405914f, -0.02303222008049488f, -0.2738747298717499f, 
-0.06966790556907654f, -0.03420982137322426f, 0.04991567134857178f, -0.20133771002292633f, 0.11359038949012756f, 0.19413195550441742f, -0.06740177422761917f, -0.2077573537826538f, 
-0.16708813607692719f, 0.036798395216464996f, 0.14438048005104065f, 0.23396310210227966f, 0.44011205434799194f, 0.10085336118936539f, -0.07771504670381546f, 0.0904407650232315f, 
0.02187458425760269f, 0.05067334324121475f, 0.09006131440401077f, -0.3386409878730774f, -0.100117027759552f, 0.26666396856307983f, 0.15148420631885529f, 0.01280540507286787f, 
-0.3721421957015991f, -0.23058532178401947f, -0.02122034877538681f, 0.11292335391044617f, -0.3380414545536041f, -0.17695757746696472f, 0.33975133299827576f, -0.0748157873749733f, 
-0.22512631118297577f, 0.10123426467180252f, -0.1941574662923813f, -0.10341794788837433f, -0.008864063769578934f, 0.19869843125343323f, -0.14589613676071167f, -0.027232004329562187f, 
-0.030718568712472916f, -0.14954231679439545f, 0.028515009209513664f, -0.05733278766274452f, -0.39102238416671753f, -0.48494085669517517f, 0.2741073966026306f, 0.1255171298980713f, 
0.2266083061695099f, -0.20405729115009308f, -0.43608421087265015f, 0.18659721314907074f, 0.1850343495607376f, 0.16248826682567596f, -0.3237023651599884f, 0.07998433709144592f, 
-0.18739032745361328f, -0.16318920254707336f, 0.18413856625556946f, 0.22219738364219666f, -0.07129751145839691f, -0.04911016300320625f, -0.12542937695980072f, -0.20840126276016235f, 
0.00443999795243144f, -0.11131814122200012f, -0.0658813863992691f, -0.12430403381586075f, -0.05858944356441498f, -0.5108187794685364f, -0.5446569323539734f, -0.2895945906639099f, 
0.062308989465236664f, 0.15423893928527832f, 0.1955595165491104f, -0.44605886936187744f, -0.4954114258289337f, 0.0034935190342366695f, 0.11646687239408493f, -0.007704861927777529f, 
-0.006312650628387928f, 0.14446838200092316f, -0.29751837253570557f, -0.32950669527053833f, 0.2684158682823181f, 0.027978358790278435f, -0.24273258447647095f, -0.3057476878166199f, 
-0.04787105694413185f, 0.24911940097808838f, -0.20639605820178986f, 0.19442489743232727f, -0.05000320449471474f, -0.1956297606229782f, -0.38285037875175476f, -0.3882030248641968f, 
-0.5874860286712646f, -0.14369112253189087f, -0.349306583404541f, -0.26728492975234985f, 0.0412718690931797f, -0.4843344986438751f, -0.3582402467727661f, -0.013632936403155327f, 
-0.0055426545441150665f, -0.0012676899787038565f, -0.053169913589954376f, -0.08770910650491714f, 0.20288340747356415f, 0.07370323687791824f, 0.16596440970897675f, -0.16977819800376892f, 
-0.4001447558403015f, -0.43429914116859436f, -0.3048084080219269f, -0.5244260430335999f, 0.0387587733566761f, 0.42568346858024597f, -0.01607147976756096f, -0.3897012174129486f, 
-0.6932221055030823f, -0.6259234547615051f, -0.32239529490470886f, -0.586617648601532f, -0.4264683723449707f, -0.4218388795852661f, -0.28754064440727234f, -0.23315763473510742f, 
-0.2772689461708069f, 0.006010824348777533f, -0.029032323509454727f, 0.003660892602056265f, -0.03735039383172989f, -0.0013642861740663648f, 0.154964417219162f, 0.07720552384853363f, 
-0.41293784976005554f, -0.2552010715007782f, -0.37401872873306274f, 0.1891854703426361f, -0.3918554186820984f, -0.6440652012825012f, -0.11882265657186508f, -0.4459899067878723f, 
-0.7017397880554199f, -0.6266371011734009f, -0.6253423094749451f, -0.4010903835296631f, -0.6339115500450134f, -0.45606109499931335f, -0.38008514046669006f, -0.22992946207523346f, 
-0.19417250156402588f, -0.12852154672145844f, -0.06960906088352203f, -0.003186763497069478f, -0.011170364916324615f, -0.0109026450663805f, -0.01005823165178299f, -0.015478548593819141f, 
-0.03224030137062073f, -0.2659861743450165f, -0.5352755188941956f, -0.25471264123916626f, -0.12296995520591736f, -0.27468547224998474f, -0.5725692510604858f, -0.2985570728778839f, 
-0.4826972186565399f, -0.628848135471344f, -0.49786102771759033f, -0.4640750288963318f, -0.5855425000190735f, -0.5998539924621582f, -0.2690197229385376f, -0.0560200996696949f, 
-0.2528839409351349f, -0.19695882499217987f, -0.11216051876544952f, -0.0698646605014801f, -0.021086515858769417f, -0.004884356167167425f, -0.014808200299739838f, 0.006832886021584272f, 
-0.03233273699879646f, -0.026873338967561722f, -0.03159558027982712f, 0.18249329924583435f, 0.10379219800233841f, -0.021446576341986656f, 0.024165721610188484f, 0.05615296587347984f, 
-0.04886443912982941f, -0.4104821979999542f, -0.5189160108566284f, -0.4309045374393463f, -0.24298802018165588f, -0.6329014897346497f, -0.8431314826011658f, -0.3936153054237366f, 
-0.20060181617736816f, -0.362858384847641f, -0.43781253695487976f, -0.22396782040596008f, -0.2934110164642334f, -0.16389130055904388f, -0.1313226819038391f, -0.0834491103887558f, 
-0.04668981581926346f, -0.022646376863121986f, -0.03233658894896507f, -0.007504024542868137f, -0.020573843270540237f, 0.1808777153491974f, -0.3391062021255493f, 0.18517762422561646f, 
-0.00951484963297844f, -0.4112170934677124f, -0.32715001702308655f, -0.18319512903690338f, -0.382791131734848f, -0.4626309871673584f, -0.44779154658317566f, 0.06681003421545029f, 
-0.2156168520450592f, -0.504080593585968f, -0.14652056992053986f, -0.16678152978420258f, -0.09739416092634201f, -0.09062989801168442f, -0.12168987840414047f, -0.3110697567462921f, 
-0.19177812337875366f, -0.19043439626693726f, 0.05506255477666855f, 0.07064997404813766f, -0.02177904173731804f, -0.015029515139758587f, 0.1371101289987564f, -0.14331011474132538f, 
-0.39070484042167664f, -0.03219330310821533f, -0.2758973240852356f, -0.6235979199409485f, -0.2631435692310333f, -0.3394368886947632f, -0.12453809380531311f, -0.3054019808769226f, 
-0.25054433941841125f, 0.21926699578762054f, -0.0026918824296444654f, -0.01187711488455534f, -0.22867733240127563f, -0.23321890830993652f, -0.0717172920703888f, -0.058251556009054184f, 
-0.26412367820739746f, -0.21346569061279297f, 0.2961135506629944f, 0.00397117342799902f, -0.2600996792316437f, -0.109864242374897f, -0.03175467625260353f, -0.0017525260336697102f, 
-0.024625219404697418f, -0.2965811789035797f, -0.25321975350379944f, -0.33485713601112366f, -0.4679049253463745f, -0.6264960169792175f, -0.6488574147224426f, -0.3453066051006317f, 
-0.019352151080965996f, -0.15661326050758362f, -0.12178707867860794f, 0.03604681417346001f, 0.08781692385673523f, 0.03989234194159508f, -0.2313450574874878f, -0.26075631380081177f, 
-0.06174173206090927f, 0.05042857304215431f, -0.28136128187179565f, -0.032353248447179794f, 0.32788556814193726f, -0.08843878656625748f, -0.16925181448459625f, -0.2409381866455078f, 
-0.03779279440641403f, -0.025812111794948578f, -0.3195817768573761f, -0.3417389988899231f, -0.20413827896118164f, -0.3412274420261383f, -0.3803074061870575f, -0.4963001012802124f, 
-0.45148542523384094f, -0.3429953455924988f, 0.01933305151760578f, -0.052808862179517746f, -0.04710287228226662f, -0.07011610269546509f, -0.020770376548171043f, -0.0309746153652668f, 
-0.05645667389035225f, -0.15672479569911957f, -0.03533455356955528f, -0.016847891733050346f, -0.19781681895256042f, 0.19811320304870605f, 0.23450738191604614f, -0.1492982655763626f, 
-0.14573830366134644f, -0.8083728551864624f, -0.04348747804760933f, -0.052680160850286484f, -0.27786874771118164f, -0.2814461290836334f, -0.12589693069458008f, -0.21231018006801605f, 
-0.3958301246166229f, -0.2942952513694763f, -0.2467685341835022f, -0.3000701069831848f, -0.32755807042121887f, -0.44176584482192993f, -0.22241534292697906f, -0.12729419767856598f, 
-0.10798417031764984f, -0.09931344538927078f, -0.011796705424785614f, -0.03007388859987259f, 0.07254747301340103f, -0.10887906700372696f, -0.1457453966140747f, 0.14361214637756348f, 
0.09199252724647522f, -0.04447938874363899f, 0.34094566106796265f, -0.1562391221523285f, 0.4275578558444977f, -0.07936371862888336f, 0.010979922488331795f, -0.00046621274668723345f, 
-0.19511419534683228f, -0.07421041280031204f, -0.25069472193717957f, -0.23126474022865295f, -0.09495463967323303f, -0.25572845339775085f, -0.2881854474544525f, -0.15453648567199707f, 
-0.13763730227947235f, -0.3352903723716736f, -0.040430959314107895f, -0.09846379607915878f, 0.030794691294431686f, 0.09989767521619797f, 0.08377451449632645f, -0.08847007155418396f, 
0.07234881073236465f, 0.14397896826267242f, 0.08613821864128113f, 0.16077451407909393f, 0.3494904041290283f, -0.1792115420103073f, 0.4099878966808319f, -0.05596011132001877f, 
0.09864700585603714f, -0.190552219748497f, -0.3073517978191376f, -0.15620489418506622f, -0.09164009243249893f, 0.018638702109456062f, -0.13580499589443207f, -0.056431494653224945f, 
-0.13347351551055908f, 0.035088714212179184f, 0.09566857665777206f, 0.14375033974647522f, -0.04997233301401138f, -0.011970696970820427f, 0.2628074288368225f, 0.19653458893299103f, 
0.17206886410713196f, 0.16096235811710358f, 0.27347201108932495f, 0.09182129800319672f, 0.05725276470184326f, 0.11393306404352188f, 0.04201482981443405f, -0.15756705403327942f, 
0.1094655990600586f, -0.06902015954256058f, -0.07318864017724991f, -0.2938539385795593f, -0.08165260404348373f, 0.22657334804534912f, 0.25174570083618164f, -0.016376834362745285f, 
-0.284912109375f, 0.40621984004974365f, 0.09866324812173843f, -0.1640414595603943f, 0.17913664877414703f, 0.14492812752723694f, 0.09198781847953796f, 0.12934395670890808f, 
0.2868877351284027f, 0.024257879704236984f, 0.23916034400463104f, 0.2613982856273651f, 0.2295810729265213f, 0.02939225547015667f, 0.1628904640674591f, 0.1708284467458725f, 
0.020333096385002136f, -0.08778837323188782f, -0.04995623975992203f, 0.3604418635368347f, 0.08047232031822205f, -0.16986052691936493f, 0.35833871364593506f, 0.032483529299497604f, 
-0.10022766143083572f, 0.12705230712890625f, 0.06252145022153854f, 0.031614046543836594f, 0.2306748628616333f, -0.1472630798816681f, 0.14335942268371582f, 0.39648163318634033f, 
0.2334137260913849f, 0.22134892642498016f, 0.4141150414943695f, 0.08286761492490768f, 0.2881085276603699f, 0.2282993346452713f, 0.16064155101776123f, 0.1754382848739624f, 
0.24182923138141632f, 0.15205377340316772f, 0.031962063163518906f, -0.19439715147018433f, 0.3161911070346832f, 0.3437597453594208f, -0.0580933541059494f, -0.20889076590538025f, 
0.2596108913421631f, -0.058416347950696945f, 0.19718551635742188f, 0.3513040244579315f, 0.4229292869567871f, -0.04129071533679962f, 0.2097524255514145f, 0.04496138542890549f, 
0.1581091582775116f, 0.46551141142845154f, 0.24802668392658234f, 0.0882745012640953f, 0.31790992617607117f, 0.22849276661872864f, 0.017917312681674957f, 0.26824235916137695f, 
0.22818301618099213f, 0.20338685810565948f, 0.19366466999053955f, 0.1802436262369156f, 0.16091500222682953f, -0.13921308517456055f, 0.10135740786790848f, 0.07048507779836655f, 
-0.02604842372238636f, -0.2752194106578827f, 0.037718724459409714f, 0.10910261422395706f, 0.5082864761352539f, 0.36029860377311707f, 0.3742865025997162f, 0.15553782880306244f, 
0.30483531951904297f, 0.3550359606742859f, 0.3266615867614746f, 0.2868022918701172f, 0.3028665781021118f, 0.05125021934509277f, 0.24823208153247833f, 0.22394074499607086f, 
0.21023963391780853f, 0.1616886556148529f, 0.08922044932842255f, 0.19912223517894745f, 0.17001132667064667f, 0.1186194121837616f, 0.12430690228939056f, 0.03330175578594208f, 
-0.03023422323167324f, 0.006572449579834938f, 0.014558721333742142f, 0.10235969722270966f, 0.15919524431228638f, 0.4741353988647461f, 0.4096488058567047f, 0.1657077819108963f, 
0.2811504602432251f, 0.1909930258989334f, 0.3851388096809387f, 0.4615005850791931f, 0.40139439702033997f, 0.08562833815813065f, 0.3072873055934906f, 0.11469734460115433f, 
0.1574765294790268f, 0.11423022300004959f, 0.17914199829101562f, 0.04673219099640846f, 0.0930132046341896f, 0.08919467031955719f, 0.31269094347953796f, 0.008159627206623554f, 
